293 150
*dt_kpop_lyrics_0 -0.438664 -0.077392 -1.373659 -0.647151 -2.218709 1.329920 -0.391325 -1.010722 0.357911 -2.868600 -2.207808 1.915518 -2.370473 -2.100868 3.168061 -1.933219 1.365784 3.151532 -0.649658 -3.334089 -1.485238 -0.470811 3.089788 -1.384827 -3.404007 -0.538234 1.609669 0.148222 0.781901 0.339989 -3.208580 -1.313880 -0.078325 -2.959928 -0.957027 1.506129 2.533760 2.920360 0.994280 2.600161 -0.598064 3.664278 3.468378 4.591366 0.339039 -3.525418 1.581518 -1.970999 1.183100 5.462496 -0.678205 -2.476635 -2.062169 1.165550 1.018804 3.239894 0.022579 4.386123 1.428709 0.000976 5.666354 2.072958 -1.311129 2.756823 -0.842771 1.190714 3.420933 1.964874 -3.103312 -1.789564 -3.425997 2.579179 -5.384546 -0.740619 -2.348293 1.333838 3.688922 -1.196772 -0.683056 1.979710 0.316602 -4.018912 1.067717 3.037388 -2.369021 -1.872817 -2.726590 -3.508332 -3.401358 -0.145465 0.541111 0.003784 -0.426275 -1.792467 -1.802313 -1.889220 -3.204413 -6.812162 -0.689539 1.706407 2.532189 0.673223 1.413314 0.949824 0.479404 0.211001 -1.745683 0.932419 1.196829 0.424522 -0.014312 1.687736 3.199403 -0.289414 3.578644 -0.826078 -3.840364 2.154406 0.000243 -0.474789 2.892500 -0.144845 0.637520 -1.063562 0.334037 0.240975 0.134738 7.467612 -2.281744 0.206730 1.413508 5.843296 -1.386054 2.045359 -0.202024 -1.536316 -0.122621 -0.305143 2.599666 -3.662284 0.281695 1.309149 -3.895058 1.457251 2.750662 -1.412799 3.114901 -1.245542 1.943282 -0.422486
*dt_kpop_lyrics_1 -2.043402 -0.484224 -0.325788 1.808635 -5.358556 1.525465 -4.863637 -2.692750 0.256230 4.018683 1.593802 -1.487083 -0.264201 -2.091341 3.768465 -3.450549 0.074138 0.539860 -4.507601 -2.364451 -2.438807 -2.708240 5.990799 -2.281992 0.091374 0.165673 1.047031 -6.993982 2.467976 -0.265413 -1.770334 0.881308 0.290884 0.263104 2.571338 -6.933523 1.388556 2.625114 -2.446104 2.986413 -2.666289 2.748148 -1.103594 2.603602 -0.807615 -3.411035 3.605557 0.375861 -0.779545 2.403772 -1.757522 2.607840 -0.486275 -1.673073 4.879288 5.273022 -1.868720 4.169690 -0.320659 -1.823619 3.450706 0.241155 -0.942434 5.058388 -1.551931 1.288006 5.984722 0.662884 0.071399 -4.258229 -2.527347 -3.511669 -1.044225 0.785896 -3.953377 -2.401086 3.717003 -2.014508 -2.090697 2.360107 -5.828060 -1.848703 -0.484570 -2.990493 1.592309 1.030513 0.676247 -0.198475 -5.929675 -0.764448 -1.077490 -1.865890 -1.038104 -6.288065 -6.777122 -0.460677 0.586905 -5.804058 3.559697 0.273441 0.746055 -3.119402 -0.998280 -0.828163 4.890864 -0.939691 -1.058543 -4.684637 1.265311 -1.083194 4.984181 -0.119356 4.691374 -2.955150 4.143765 1.022761 -4.908279 -0.835986 -0.224754 -3.772711 0.044921 -1.789307 -3.171492 0.490758 -1.289811 -3.227736 3.043449 1.200311 -6.322972 1.189775 3.966131 -0.711861 -0.655910 2.066920 -4.022378 1.434054 1.647528 -1.031005 1.689659 2.242437 0.577423 -0.096458 -3.178683 2.708207 1.189997 -2.108889 4.473144 -3.483427 2.362462 -2.707549
*dt_kpop_lyrics_2 -3.591022 0.694791 -0.217286 1.522147 -0.004204 1.680500 -3.522500 1.327567 1.040212 -2.931610 -1.426794 -4.307623 -1.322212 -1.416283 -1.860494 -4.780634 0.090858 -0.970902 0.538421 -1.364802 1.869171 -2.911502 0.671498 -0.814252 -2.041037 -1.144951 3.147026 2.208067 2.008466 4.558267 -2.163089 -6.184497 -1.290062 -4.620620 1.545183 -2.075013 4.713583 -0.119313 0.793029 -0.257040 0.035085 -0.813977 1.709239 4.430816 1.082060 0.273011 2.206478 -2.213339 -3.141160 5.950155 -2.189671 0.699226 -0.260324 -3.512327 2.456241 4.146436 -4.129100 -1.844481 1.348189 1.161863 0.817835 -0.246096 -6.476992 1.488964 1.588719 4.616740 0.044829 1.738978 -5.380795 -2.106786 -1.106123 0.345694 -1.686457 2.634904 -1.143321 -1.895799 0.329077 -0.439987 1.448775 4.447012 0.809695 -4.056349 -1.706673 3.900847 -0.640585 -1.031609 -3.388897 -4.047531 -2.282050 0.614595 -0.019862 3.297505 -0.916093 -2.149237 -4.181508 0.773628 1.061131 -4.538221 3.919505 -2.340967 -1.452559 -0.423409 -2.766283 0.642170 -2.789510 4.527799 -4.949419 -0.075555 -3.132456 -2.672135 1.068425 1.434100 4.927133 -1.230715 2.846410 2.069687 0.831564 5.377654 -3.565956 -1.334498 0.714389 -2.028765 -5.130155 -0.308269 -0.424803 -1.305061 5.004103 3.756915 -4.245680 1.263495 1.365491 1.433841 -2.824439 0.328133 0.141348 0.865144 2.155684 0.126191 0.602124 -2.659547 -2.912310 1.596078 -5.680070 4.350145 1.743538 1.094649 2.293802 -3.477120 2.847083 -2.456836
*dt_kpop_lyrics_3 -2.384862 -0.018978 -1.803115 -1.751004 0.182456 3.587293 0.413926 0.398095 -0.312079 -0.657860 -0.084708 1.763114 -0.232884 2.205520 2.991230 -3.460585 1.955399 3.638886 0.039184 0.000256 -0.508351 -0.418039 -1.916371 0.559019 -2.336382 -1.770282 -1.159148 0.922563 2.198543 0.608480 -3.267226 -3.180089 2.667574 -4.071572 4.225619 -2.440960 0.782386 0.173541 -1.566108 4.133844 0.512845 -2.360788 -0.236190 3.437043 -2.815763 -3.123222 1.931754 -0.191522 -4.170578 -0.081958 -2.911889 -1.268843 -1.351918 -0.915638 2.935721 2.063896 0.483253 -1.145769 2.306885 3.236813 -0.385005 2.427647 -1.433192 -0.728554 1.470494 1.999340 3.893322 0.153581 -3.966965 -1.331890 2.730769 -0.469711 -2.215942 -1.808362 -0.617404 0.446146 -0.191603 -1.114167 -2.130835 1.073156 -3.987246 -3.492914 -1.182131 2.693356 -0.307979 -1.087779 -0.823307 0.892856 -0.397016 -3.169649 -0.915831 -0.041466 -0.360921 -1.829165 -1.158024 -0.724867 -3.756453 -4.881911 2.384352 -0.684777 -0.172944 1.313036 -0.065286 0.214430 -2.920468 1.195460 -0.842014 -3.008512 1.223770 -1.774505 -0.117375 2.021485 6.594066 -0.098059 6.107668 0.411679 -0.711959 2.593141 -0.701994 -3.027837 1.639563 -0.919745 -4.285983 -0.610245 -2.677956 1.716162 -0.708274 2.654759 -2.155839 0.142749 3.204692 0.032694 -1.379609 0.334123 -1.179467 0.652150 -0.249247 0.918918 0.870588 -2.944019 -2.232984 1.189407 -5.965113 2.943067 0.273150 -1.300583 1.935467 -2.437260 -0.338845 -3.350150
*dt_kpop_lyrics_4 2.583000 0.952830 1.792392 -2.665477 2.827362 5.331355 -3.294701 2.723737 -3.506758 1.972661 -4.876904 -0.033673 0.596306 -0.881506 -1.941562 -0.210046 2.212568 0.393019 -1.266000 0.022245 1.284380 -1.682848 -3.983710 -0.480951 -3.534594 -0.891374 1.207551 4.901400 0.521392 1.323263 3.509741 -1.727244 0.278750 1.570701 5.277672 -3.072224 1.783234 -1.802364 1.643354 1.645346 -1.903197 -3.091501 -4.148066 8.248041 -1.322124 -1.364605 3.648704 -0.431058 -0.178115 5.503847 -1.552878 -1.232517 0.321501 -1.229299 2.775834 3.426811 0.728797 1.146106 3.026230 -0.518472 3.291288 3.372816 1.812902 2.377421 1.606456 6.023098 1.308706 0.559038 -2.541585 -3.249641 1.864663 -2.356475 -3.210417 2.290975 0.810698 1.037571 0.154656 -4.522989 -0.802614 3.185439 -0.867383 -5.137580 -1.484948 0.327328 -4.612985 -3.692315 -5.874681 0.200292 -2.039380 -1.268147 2.068379 -2.062394 -5.518489 -7.181087 -4.112646 -3.189272 -2.231606 0.801181 2.871798 -1.775202 1.764728 -5.551857 -1.475507 -1.395522 1.233394 0.756750 -2.428554 -1.637252 3.664185 1.011768 2.986655 -0.124430 5.024916 -5.876142 3.164571 4.686904 -0.563282 -3.865133 0.180375 -1.408562 0.971175 2.005301 -0.586311 -0.173700 -0.544420 2.695512 0.505380 0.619325 -2.600774 1.056200 3.594816 0.956349 0.287346 -2.628210 0.208807 2.271322 -1.010657 1.742720 3.629628 1.495722 -0.739682 -2.088757 -3.407936 0.934287 -1.478277 0.458932 3.284747 -3.361552 3.981976 1.799544
*dt_kpop_lyrics_5 -2.840484 7.675271 4.575819 -4.252183 -2.498778 0.435053 -2.923424 -0.383429 1.110165 -1.637866 -7.819927 -2.364656 1.209935 -3.737734 0.222786 -0.406103 -3.147175 2.180237 -3.816657 3.318874 -1.852860 -3.430424 -3.216683 0.248327 -4.339496 1.207809 4.739627 4.746121 -1.934015 0.714562 -3.711056 1.565834 3.030994 -1.762166 5.627614 -3.183386 1.676708 1.151929 -5.082768 2.393563 -0.951151 -0.997301 2.509972 6.794983 -3.474527 1.667087 4.667650 -0.361237 -3.550885 4.043686 -2.066104 -2.674433 -8.477378 0.301127 0.311021 4.752596 -1.772645 -0.181374 7.838929 5.859815 -2.169676 -2.127715 -4.470392 2.228727 0.740516 -1.821676 1.655754 -3.062565 -3.552044 2.970550 -4.513876 3.091819 -5.146528 7.187741 -5.573890 2.260315 -0.055891 -2.415453 -2.529298 7.331433 -3.229216 -7.647152 3.561243 0.077224 0.048896 -1.775162 -8.661154 0.627194 -1.373992 1.700888 4.253575 -3.713504 0.866003 -2.959460 3.497399 -6.923535 -2.445123 -5.645902 6.288282 0.232983 -0.283856 -6.293362 4.629302 1.406937 -2.646433 -0.787973 -4.563897 -0.983081 3.620592 1.651155 1.961001 -4.728733 7.363467 -0.549732 2.791924 1.025048 -3.852127 2.202425 -6.254431 -4.164238 1.893349 -5.422503 -6.317302 1.022424 -2.684466 1.982876 -0.722938 0.971733 -1.079615 -0.964007 -0.492241 6.421316 1.275614 -0.035602 -1.962744 2.081415 0.659883 -0.149396 3.300260 4.005166 2.907938 -2.134045 -3.794315 5.005585 1.531484 1.521956 0.417545 -2.203604 4.556296 3.843066
*dt_kpop_lyrics_6 3.381205 1.261501 0.186312 -0.403667 1.426681 2.158128 -3.777536 0.560912 -1.387012 -3.759178 -4.329996 -2.328451 1.037648 -0.631112 0.594090 -2.172212 -3.586531 3.079299 0.299398 -1.090359 1.027444 -0.485274 -2.305492 1.861512 -4.180611 0.105166 1.504851 1.962259 0.061173 -0.246351 -0.990363 -5.854376 0.873343 -0.568665 2.211171 0.489980 -0.133208 0.797693 0.991729 1.950572 -1.583788 6.565026 1.672382 3.356211 -1.303313 -1.390412 3.092598 -1.049291 -1.802696 2.981349 -1.210080 -1.063004 1.414378 1.280794 0.185496 1.199836 -2.451242 0.398741 0.635338 1.883320 2.388749 -4.236135 -2.218927 3.448173 -1.039015 -1.203514 1.256667 -1.760355 -1.207818 0.128509 -1.064449 -2.377906 -1.308919 0.600392 1.293437 4.588466 -0.158673 -2.196704 3.406811 1.154511 -3.044025 -2.489194 2.439932 2.032300 -2.650391 -1.694882 -3.708329 -0.339720 -5.526717 2.329785 2.554585 -3.301297 0.500278 -5.187442 -1.615935 0.393287 -3.469256 -1.973977 3.322353 -0.113340 3.241627 -0.784670 -0.342551 1.066966 -2.585496 0.731701 -0.172932 -1.798105 2.273729 0.908123 1.844132 -1.581453 5.783301 -1.088274 5.066588 2.839988 0.175050 3.987776 1.413585 -3.950253 0.189944 -0.991926 -1.288540 -0.075713 -1.177803 -0.145131 2.955090 3.895411 -2.334309 1.774604 1.390815 -0.709182 -1.674374 1.521651 1.519877 1.431161 2.661232 -0.359310 1.899805 0.997331 -0.542537 -0.089560 1.008766 2.067090 1.446811 -0.047331 2.611375 -2.504770 1.484791 0.612465
*dt_kpop_lyrics_7 0.613140 -3.948723 0.243304 0.185665 2.573283 6.400004 -1.904919 2.528897 -3.006435 -0.969052 -5.472690 -2.087102 -5.554223 1.547835 -2.415401 -2.067086 0.245726 3.420377 1.433745 1.176586 -3.969779 -3.662184 -1.834503 0.664111 -1.370856 -1.525843 2.139227 1.247082 3.384457 3.938558 3.829520 0.534163 -0.279406 0.393621 6.639963 -0.917247 0.989002 -1.531976 -1.530802 3.749660 -1.417366 5.212711 -1.430405 3.335802 0.450750 -0.425440 2.020749 -1.447316 -0.769551 4.040961 -3.224564 -1.851911 -1.892080 -4.408757 0.884685 5.918472 -1.947365 1.218431 0.836973 2.548866 0.043159 1.484517 -3.882040 4.609760 2.948187 1.403857 1.396782 0.855475 -3.056307 -1.694171 3.871759 -0.796715 -4.351813 2.238018 1.172271 1.002370 2.148064 -0.431070 -2.677356 2.147739 -4.097881 -0.174122 1.219246 0.717112 -1.074788 -3.668296 -4.999451 -0.164022 -1.840731 3.773084 3.462784 -3.627571 -1.338386 -1.231057 -1.623995 -3.955208 -1.937848 -4.584398 5.319575 -1.034439 0.747368 -2.563261 0.344220 0.295040 2.738566 4.476020 -0.830007 -1.126779 0.540152 -1.584036 -0.539795 -0.218522 5.484462 0.417680 3.009832 1.870966 -3.014751 3.357764 1.272212 -0.415803 0.992337 0.361739 -1.807805 0.279078 -1.538125 -3.369235 -0.581384 1.137384 0.116850 1.686749 0.899818 1.264381 1.990237 -1.323869 -2.581103 0.717591 2.507712 4.693536 2.921223 1.007439 -0.990483 0.705932 -1.932579 4.767889 1.842892 1.546058 1.206088 -4.742507 4.090335 1.830651
*dt_kpop_lyrics_8 -3.308968 0.164292 1.284756 -3.900757 -0.384401 6.375790 0.749147 2.473713 -0.957064 2.265934 -2.335114 -0.352384 -3.549487 -0.176138 2.409740 -1.700067 1.819078 1.558363 -4.501649 1.676546 -1.384561 -1.104273 -2.358414 1.224417 1.189040 -3.559197 1.231528 0.485567 -0.168679 2.436604 0.489048 2.244013 0.964661 -2.861079 3.030514 1.578571 -2.842998 1.684309 -1.173996 4.328443 1.170078 1.956420 0.569346 3.444225 0.019069 -2.923805 2.295456 1.488895 -1.309594 6.478658 -0.944987 1.163140 -1.320553 -2.322599 -2.304897 0.905367 -3.063486 3.309915 1.196185 -1.581889 1.940795 0.454078 -5.144060 0.106301 4.581558 2.427953 1.015017 0.063977 -0.518770 -1.305843 -3.489278 -2.260941 -1.661263 1.348769 -1.385337 -0.132922 4.108815 -1.177573 -2.300006 0.634901 -5.966362 -1.367127 1.725073 1.047182 -2.962358 -3.411187 -5.458184 1.480586 -0.059587 0.342434 1.198733 -0.575778 2.102097 -3.374926 -0.756572 -6.357604 1.381808 -7.250145 -0.185992 1.371209 -1.388013 -1.941617 -0.099661 0.259248 -1.389711 -2.126748 0.256612 -1.843977 2.760917 -0.227001 2.568951 2.213696 1.739734 1.778810 2.939762 -0.501442 -1.954619 2.209464 -0.746190 -3.417892 0.007264 -1.110098 -6.076308 1.522956 -2.259249 -3.089673 -0.616114 7.516385 -3.477697 2.022399 6.714759 1.332220 0.639780 0.964070 -2.355409 2.173227 2.883912 3.258687 1.813336 2.215111 -2.337912 2.864479 -3.851805 3.193698 0.771295 -3.474041 1.405195 -5.464411 0.274729 3.462665
*dt_kpop_lyrics_9 0.480680 -0.513341 -0.461805 0.791898 0.730443 4.820879 -4.463223 1.348415 2.160896 4.050564 -3.441915 -0.384223 -2.779774 3.346633 1.338357 -3.780115 0.284802 4.215604 1.110655 -4.112052 2.085013 -1.684288 -0.585920 4.152247 -5.361548 0.995488 1.846960 4.796280 0.037389 0.888392 -1.416335 -1.636128 1.688616 -1.840820 6.161655 -2.604121 0.471517 -0.000935 -3.212009 1.118059 0.423235 3.366218 0.805836 3.481517 -3.612579 -0.759983 1.721704 -0.158537 -7.743042 1.120128 -5.301767 -2.603624 -3.400256 -1.971124 4.103562 1.087282 -2.680251 2.883444 3.131697 2.664880 2.978633 -2.894853 2.035050 6.696194 5.743343 5.662013 4.321287 2.336694 -2.114220 1.245751 -1.633155 2.121380 -7.882236 6.345883 0.165335 1.489661 1.106987 -0.822805 1.209911 -0.306009 -3.599227 -8.109078 3.210160 4.149292 -1.964840 -9.290827 1.121556 3.163820 -0.631363 -1.892703 1.200574 1.894192 2.384034 -6.911561 -3.427871 -3.018206 -0.433970 -2.797248 3.758945 -0.223160 5.363135 -3.997884 0.650743 -0.482517 0.255916 2.282844 -2.362481 1.535088 -1.330423 -3.106044 -3.489130 -1.360325 2.924550 2.554610 2.804905 -2.903473 2.187149 5.002163 5.147551 -3.669908 1.604057 -0.553541 -0.334458 3.278841 -2.766479 3.188981 -0.491151 1.348196 -5.211083 7.028085 -0.883116 2.572348 1.626863 -0.116947 -0.083462 1.813484 2.030995 6.464272 2.838330 1.034764 -0.898082 1.895052 -7.419816 4.020526 -2.964674 2.129001 2.565179 -6.218263 0.202590 -1.703752
*dt_kpop_lyrics_10 -3.492881 0.391795 2.221099 0.531451 -0.982864 4.742253 2.411174 -0.020260 3.991743 -0.935739 1.105152 -3.483686 4.827923 -1.687928 2.808085 -3.129805 3.416606 -1.224192 -6.729081 -2.764882 1.078185 -3.955876 0.246806 -1.601874 -0.024595 3.756082 3.886649 -4.342979 -2.882149 3.094731 -4.398535 -0.690791 0.438486 -8.844643 4.300291 -1.493863 2.014171 4.110791 -0.740874 0.563987 2.162629 0.255419 1.368720 4.269132 -0.704285 -4.401967 4.545551 3.712979 -2.492055 4.029227 -1.754875 -0.476725 -7.242882 3.404047 4.549714 3.661448 -5.326262 3.123758 7.228984 -0.170540 -1.734820 -0.062220 -3.611545 6.677625 -0.221863 13.647359 6.552211 -0.730842 -0.016921 -1.461887 -3.811539 4.205276 -8.190713 2.617298 -1.185436 -0.276978 -1.173028 -4.351089 -1.902502 6.149966 -3.959334 -8.523785 6.680074 3.253953 1.964660 -7.223176 -3.152955 4.402193 -0.957465 4.086715 3.368324 -5.449562 -0.547619 -5.834856 -0.444238 -3.837968 2.539279 -1.962758 7.766285 -2.992230 0.261624 -3.557008 2.350279 -1.287501 -1.821667 0.880366 -4.232814 -1.505083 2.496681 1.164124 8.674914 1.238226 7.089138 -5.559664 5.727972 -6.945259 1.689080 0.621147 -1.737052 1.226191 6.659633 -4.667877 -3.753341 -8.837143 -5.326891 1.111149 -3.963461 -0.685819 -0.468923 4.172422 0.894495 4.561582 -2.971980 0.596898 -2.814086 3.708792 -1.715084 3.033412 4.486385 0.076763 -2.803102 -3.845779 -4.529399 -2.758827 -0.984885 0.931581 0.480821 -4.533179 2.434974 -0.506767
*dt_kpop_lyrics_11 -2.477287 0.972833 -0.344023 2.450872 -1.030963 2.044523 -0.949079 1.537788 0.162411 0.200925 -2.843191 -0.972743 1.735846 -0.482305 3.764923 -4.383571 0.153639 -0.244949 0.390701 0.258725 0.226499 -2.235772 -3.331276 -0.443846 -1.950527 0.143195 1.266945 2.630890 -2.784276 0.998147 0.753830 -2.074538 0.282338 -3.534545 5.510508 -2.665774 1.910444 -5.367938 -1.187542 1.564492 -1.261149 2.382131 2.163438 4.112366 -1.215490 1.133115 0.508793 -1.888050 -1.050796 1.282701 -1.136710 -1.415299 -0.868851 -2.694149 2.703988 4.654175 -2.958388 2.857602 2.646844 3.561139 -1.687404 0.706274 -1.446830 2.036942 0.490298 -1.116642 2.484989 -1.242342 0.159573 -4.413153 2.062232 -1.033350 0.984488 1.304674 -3.720348 1.502162 -0.242058 -1.166514 -0.675492 2.916129 -3.022996 -3.952671 3.518666 3.112447 -0.392972 -0.206143 -4.295537 1.260777 -2.894694 3.191498 0.308765 -1.200651 0.567134 -2.789984 -1.140282 -3.557184 -2.044479 0.127028 5.038793 -0.092460 1.794328 0.242302 -0.013637 0.195219 -3.826637 -0.262335 -2.743006 -0.917066 2.362629 -0.216888 0.946104 -1.121918 2.426153 0.347188 2.001419 2.461443 -2.177924 3.026889 -1.346642 -4.625883 2.612324 -3.583078 -5.564847 -3.681731 1.423913 -0.499023 -3.120872 0.428961 -0.876454 2.096554 4.281852 0.279613 0.059497 -1.931563 0.312627 0.811328 3.009375 -0.509235 1.479405 -1.796348 -0.921677 0.606723 -3.598741 3.281523 0.807873 1.755635 -0.957274 -4.253994 0.376100 -1.633817
*dt_kpop_lyrics_12 -1.890771 1.065675 3.838242 1.231428 -4.172016 0.453744 -2.383845 -2.790607 3.951335 -0.117586 -2.273351 0.768879 -0.542141 0.214809 1.553459 0.220548 0.198495 4.481867 -3.460121 -0.502180 -4.361607 0.562648 -4.221265 -1.552333 1.585497 1.513619 -1.699988 -1.289746 4.695480 0.750752 -0.457889 5.247765 -1.173285 -0.888857 2.410733 -5.255110 3.679985 0.415289 0.533444 4.323466 -0.334323 0.027961 -2.379238 3.968800 0.324565 -4.306316 2.233819 2.958574 -4.909783 6.203755 0.980007 1.080877 0.688041 -0.047017 2.479352 6.360238 -1.214924 2.075917 4.567028 2.168422 0.691444 -0.645262 -3.460544 1.991301 2.886909 5.354973 2.983570 -0.509948 -3.774295 -3.841297 -4.244968 -2.063892 -0.801855 -1.993812 -1.226998 5.396999 2.625160 -0.452967 -0.873588 1.113298 -5.560344 -3.265223 2.921407 0.560005 -3.989198 0.006092 -2.156928 0.194671 -1.759376 0.153534 2.033342 -3.580311 0.842686 -4.092032 1.264140 -2.118053 -2.842732 -3.250304 2.662205 0.140796 -2.029881 -0.436699 -1.918198 -1.919315 1.242374 -0.438774 -2.135247 -0.400258 4.651106 1.901438 3.597092 0.612073 5.357071 -2.491346 2.753219 0.550346 -2.474618 1.829811 -3.946945 -5.108508 -0.282318 -3.194299 -0.248579 -4.147140 -2.732450 -1.046025 -0.545906 0.536250 -3.685925 0.411797 0.676997 0.330938 4.680027 1.567500 -0.057186 -3.133395 0.546837 4.552592 2.120355 -1.468609 0.583635 0.876088 -5.291464 -1.305660 1.452415 -0.524469 -2.129233 -5.286023 0.974058 -0.842247
*dt_kpop_lyrics_13 0.209178 -1.136183 1.401550 0.992983 1.780705 0.795000 -5.329056 -1.683523 4.124634 2.030305 -6.132191 -3.772980 0.584858 1.207093 1.521966 -6.919213 -2.518606 4.849344 -0.769159 4.728347 1.102713 -4.947448 -4.279232 -1.453373 -3.236109 1.483044 1.074856 0.200321 -4.234012 0.107410 -2.541093 -0.957668 1.408998 -4.482767 2.799610 -2.279668 2.667359 -5.036457 -1.440351 1.268086 -2.158605 -0.139711 -1.763411 5.506698 -5.410411 -0.829459 4.680357 5.662544 -2.099339 6.417672 -5.952616 2.694429 -0.319518 -2.629559 1.364741 2.484004 -1.040959 1.024078 6.691894 2.380416 0.684836 1.413542 -2.012095 6.199255 4.088096 1.052605 2.375758 -2.768857 -4.337492 -5.832471 -6.118769 -0.720780 -0.455431 6.745009 -2.382975 -2.509901 -1.977360 -1.061650 -4.162418 3.587713 -5.882929 -6.484152 8.078075 4.446430 -6.991821 -1.317843 -3.892960 0.693222 0.289836 1.518709 -2.838555 0.960455 4.684498 -4.786517 -3.051907 -1.777010 1.747171 -4.416643 -0.563267 -0.407342 -1.342609 -1.598849 1.970344 -4.762991 -1.718967 -3.373195 -1.558183 1.348072 0.767900 1.175285 1.500533 1.076851 3.558532 -1.300189 2.949964 3.741343 -1.942270 0.939567 -2.971065 -1.401454 0.182317 -1.337133 -6.475748 -3.380068 -1.398315 -1.934991 0.808876 4.696192 -2.119712 4.050301 1.261382 0.536426 0.847638 -2.024775 1.125515 0.979765 4.319075 1.000063 0.522165 2.215200 0.080712 0.022761 -3.879606 1.841491 -2.794342 1.120177 -3.562495 -6.037932 -2.996569 1.955809
*dt_kpop_lyrics_14 -2.475504 -1.248930 -2.827721 -7.188907 -1.714135 9.872518 2.660697 -1.692864 -0.393663 1.248657 -4.497426 -0.564931 -3.034525 5.267132 -0.202051 -2.057190 -0.384057 2.166095 0.411703 1.721660 -2.850936 -0.473340 -3.780330 1.375445 2.464275 4.259595 1.336002 4.073938 -1.950113 0.073896 2.759555 -1.898011 -1.981512 -0.267580 6.101378 -4.306823 0.541450 -1.179588 -1.274909 -0.269701 -0.852587 1.159268 1.352476 8.336031 -6.543471 2.402086 2.888196 1.475293 -1.916380 3.386942 -1.769921 0.248133 -0.204563 -2.471984 1.160304 2.103515 -1.993871 3.413422 4.590678 1.640042 3.733179 1.886030 1.234805 5.114635 3.645121 2.390085 3.209792 2.435508 -5.755548 1.168372 1.554718 -3.240331 -6.369801 3.314909 -3.505653 2.527973 -2.585093 -2.732410 -0.688724 -0.793350 -2.347584 -2.225179 2.712083 2.154421 -2.868097 -4.325322 -6.577534 3.163913 -1.241700 1.075730 2.796817 -0.639482 1.421710 -2.252005 -2.745508 0.765720 -3.556308 -1.061341 2.987258 1.731701 -0.187628 -2.111098 3.782214 0.272814 -4.952659 1.490130 -3.406954 -5.931978 -1.279161 0.611117 0.034236 4.005332 2.882914 -2.881034 4.377491 1.106527 -0.023186 5.021308 -1.665415 -0.729894 1.715130 -0.901287 -1.346537 -3.555145 -3.741199 2.215727 -1.332482 3.205853 0.047919 5.612938 1.962559 -4.784469 2.748577 -1.866020 1.185844 5.495449 -1.550205 1.133522 0.467443 1.805066 2.526818 4.762652 -1.052152 3.155438 -2.166734 -2.699881 5.566690 -7.667334 -0.696836 1.197790
*dt_kpop_lyrics_15 0.213715 4.389563 2.571919 -0.544326 0.465034 1.037101 -2.648092 1.867989 1.363137 -4.323891 2.438519 -0.745070 -2.913149 3.498228 1.936392 -1.087617 -0.870002 0.965801 -2.176056 2.198584 0.436287 1.647093 1.759948 2.738569 1.019621 0.033094 2.840110 1.989494 0.261037 -0.250826 1.520436 -2.275135 -0.202509 0.814743 4.039254 -1.114487 0.677374 0.692735 -1.298653 2.987046 1.143032 3.563657 2.014591 1.142669 -1.685179 -0.616780 5.174994 2.929371 0.480801 6.142989 -2.452685 -1.587433 0.708572 -1.370693 2.903426 5.440033 -2.321275 1.507617 -1.140941 0.163100 5.715152 0.619273 -2.184801 2.137671 4.706992 0.695147 2.728141 -1.947899 -1.285615 -3.469578 0.007148 1.725589 -4.629238 0.662550 -2.726870 -2.076899 -0.401401 -5.141716 -1.743921 4.079151 -0.057088 -8.335745 1.882860 5.452452 -4.181785 -7.465714 -3.739330 1.179131 -0.644890 3.070676 -0.093982 -4.069854 -0.492425 -1.443106 -3.282655 -0.925029 -1.953016 -4.330211 -0.235165 0.332924 2.895620 -1.496945 1.556362 1.315690 3.925514 -0.357428 -2.340026 -1.745106 -0.858476 -0.337118 2.988224 3.478239 3.516835 -2.687639 3.456695 2.283025 -2.244353 2.923245 0.225616 -1.041225 0.981881 3.420302 -1.555992 -1.995186 -2.631183 2.369306 0.807152 4.038128 -2.191599 3.280754 1.726240 2.101910 1.897730 -3.853893 -6.441943 -0.458881 1.459524 2.624332 1.056153 0.884982 -2.919561 0.576367 -1.283359 1.210950 3.033867 -0.334633 3.814355 -5.198156 3.587647 -2.619212
*dt_kpop_lyrics_16 -0.045451 0.264151 0.350902 -0.624506 -2.334250 3.824021 -3.229380 0.781790 1.104576 0.923292 -2.404351 2.047801 -2.868359 -0.616579 3.114420 -0.708278 -0.902354 -0.256574 -4.682756 -2.792695 -0.769732 -3.364269 -2.283426 -0.930062 0.120283 0.776890 3.047570 1.866994 1.172842 -0.416789 -0.329531 2.571464 0.600093 -2.975180 4.675485 -2.469016 0.607350 -2.123140 -3.940095 4.776620 -2.676298 1.044062 -1.390970 6.846388 0.087029 -4.859448 2.348255 -2.097927 -1.274187 1.484074 -1.478070 1.036907 1.991863 1.426904 3.203121 3.227645 -6.539361 -1.617429 0.983956 -0.274881 2.056808 0.913634 -2.656782 2.858612 -1.574986 4.161881 3.439741 -0.331915 -2.498959 -4.054751 -0.722292 1.148172 -4.966821 -1.143742 -3.492746 -0.413203 -2.600122 -0.773324 2.317798 2.189401 -4.428532 -2.750915 -0.537046 -0.808483 -2.571637 -2.995079 -4.829212 -1.646097 -1.082604 -5.370554 3.997438 -2.892794 -3.513621 -3.639243 -3.161388 -2.484576 -0.386474 1.507183 3.425509 -3.869739 -1.098307 -1.958763 -0.984880 -2.001141 0.170393 -1.722921 -1.592969 1.406808 2.180238 2.810682 -3.458930 1.781811 4.975360 -1.005102 4.442698 0.631295 1.935238 0.575542 -0.993300 -3.402514 -1.951523 -0.325131 -1.612019 -1.179970 -2.110762 -1.781792 -1.644244 1.570000 -4.352697 2.672394 -2.497585 2.246350 4.182199 0.670158 2.835661 -3.058353 0.103892 -3.941820 4.691678 0.660658 -3.615145 -1.549455 -5.505545 3.230021 -0.783046 -0.423275 3.590997 -3.623813 2.737178 -3.061580
*dt_kpop_lyrics_17 -2.436182 -0.543207 -2.921515 -1.586735 -0.719588 3.362559 -3.544082 -2.225276 5.246797 -4.041735 -3.196736 -3.234064 3.331917 0.645691 1.102499 2.429976 -6.018733 4.176561 2.549984 -4.385689 2.521370 -2.552161 -0.649185 0.070628 -0.997468 -0.083808 2.315543 0.565319 1.110979 3.169975 1.667552 -0.473107 -1.479789 -1.772984 3.118866 -0.946784 6.657683 -3.114460 -2.437391 3.295652 -3.196615 0.565667 -0.540945 6.722200 -3.699593 -6.520189 6.668966 -1.270758 -3.323921 0.237206 -7.201410 0.161486 3.435493 0.255776 3.780936 0.766381 -0.117163 2.698617 -0.682953 1.491529 3.477694 -4.300927 -2.652329 7.577485 1.014247 7.168222 3.613076 -4.221930 3.242915 -2.828676 -0.288949 -3.220754 -2.960137 -0.876341 -0.677848 2.277023 0.843646 -4.995835 2.765726 -2.047545 -9.271042 -1.494133 0.499472 0.632445 -4.151348 -4.726571 -4.478872 2.566734 -1.463477 -2.324309 -3.499813 -6.131478 -1.201352 -8.534846 -1.876754 2.174805 5.132071 -5.530893 3.753714 -3.292562 2.028961 -3.037442 -0.957354 -1.987606 -0.459085 -2.895187 1.401438 3.706308 -3.318941 -2.434424 0.864523 -0.399886 8.813400 -5.373767 3.506875 1.442790 0.018650 6.758381 2.768099 -4.374805 3.394988 -3.018075 -5.177449 -1.406948 -3.393329 0.884615 -1.939877 -2.575001 -4.318875 2.688781 0.819225 2.162679 0.284947 -3.799999 -1.625600 2.471313 -2.576650 2.317642 1.546696 -2.291128 -0.236604 -2.004614 -4.380804 4.474128 0.084799 1.089880 3.723417 -6.833097 0.344177 -2.730584
*dt_kpop_lyrics_18 -3.986746 0.653167 -0.613191 -1.088929 -1.554279 9.971210 -0.801412 -2.432499 1.811032 -4.738796 -7.388109 0.667494 -3.385615 2.870795 1.147069 2.055264 3.229077 2.666469 -0.053184 -0.845188 -3.686756 -1.617325 0.428818 -1.790275 0.107671 2.339507 4.853581 2.049453 -2.083416 -3.474344 1.999477 -1.976987 -0.050109 -0.811487 1.491178 -0.321252 4.926704 0.913565 2.109442 5.390569 -0.658803 -0.620897 -1.520541 5.123152 1.215294 -2.350932 0.830342 -0.778570 0.599027 4.066158 -3.845980 -3.959543 0.469535 0.277758 1.072790 1.652437 1.822637 3.157543 2.757925 0.702479 5.197689 -6.202590 -3.221022 2.678483 3.831302 9.499546 -0.797307 -1.899503 -7.271974 -2.001235 2.994670 -0.975093 -7.690885 -4.324582 0.010030 -1.874864 0.182053 -5.103096 3.531530 3.358812 -4.980021 -7.581722 -3.262641 1.568288 -0.147818 -5.753301 -5.301854 0.216946 -0.366256 -1.568475 6.840370 -3.906800 -3.694317 -6.841074 0.704549 -4.863878 -3.430243 -8.336987 -0.332498 -0.403324 3.282598 1.455507 -5.832904 -1.185249 -0.163623 5.735987 -3.188090 3.483029 2.182474 -3.736148 5.031472 2.599471 2.920001 -3.666888 1.249409 2.165941 -0.487628 2.245026 -4.731329 -1.068438 2.170691 0.706458 -4.780800 -2.142878 -5.933663 2.161467 -4.412674 5.630622 -6.242170 -2.344044 3.049746 3.446441 1.333225 0.595614 -1.344640 1.985135 -4.028023 -4.100006 -1.112474 -6.192924 2.517180 -0.123344 -4.278500 4.420963 1.964915 -0.054897 3.460236 -3.389507 4.340907 1.071288
*dt_kpop_lyrics_19 -4.182573 -3.426310 1.181365 -4.381649 2.639392 5.533278 -0.211913 -0.280490 7.344911 -4.049254 -0.672576 2.644451 1.929789 1.550904 -0.746798 -0.637166 -1.261302 3.106441 -0.213113 -4.258374 2.158821 -2.460249 -2.451734 0.919534 -3.358762 -0.138321 -0.739156 -1.904750 2.112868 -1.699713 -2.325111 -0.648729 -1.224079 3.486212 5.619680 -4.052729 -2.138265 -4.501580 -0.842563 1.078604 -2.620640 0.277188 -4.584067 9.826639 -4.173591 -3.190417 3.470845 1.924322 -0.245241 6.000532 -3.842598 -4.566505 -1.382156 2.158109 -0.612992 -0.708987 -2.500023 2.560254 4.532624 -1.549836 0.553903 3.450294 0.157174 5.907313 2.564973 5.982829 1.438138 2.017352 -6.766551 -0.039793 -4.455592 0.559699 -5.409563 -1.351685 -1.347635 -0.158031 0.244751 -0.921580 -1.499736 5.947742 -4.976483 -6.476663 -0.780292 -0.526631 -4.453540 -4.460425 -4.651293 2.072461 -2.158460 2.763831 0.148226 -3.292582 -2.155635 -10.029333 -0.568420 -0.217328 -6.252192 -4.962775 -1.357510 -5.855475 2.488344 -3.047529 -0.397039 0.142495 0.977980 -0.484850 -2.484998 0.638639 1.090792 -1.520415 0.744535 -4.449478 9.542707 -1.156588 -1.330178 -0.434902 1.437507 2.099946 -1.446814 -10.081712 3.429561 -1.326364 -2.313244 -0.241539 -2.984684 -3.024702 4.256521 5.299234 -0.344049 5.719188 -0.802686 -1.228866 -1.090457 0.027325 -1.497649 -0.322763 0.001179 -1.468230 5.947577 -1.820611 -2.650883 -1.505390 -2.263339 -1.442402 -2.765834 0.289717 -0.436384 -6.880486 -0.495924 -2.120618
*dt_kpop_lyrics_20 -5.420681 0.013930 -1.261135 -2.425714 0.320711 5.555872 -4.566113 -2.430117 -1.022232 -0.019431 -3.834772 -1.707076 3.798670 -4.188344 -0.215705 -5.612502 1.435319 5.461555 -1.567101 0.432732 -4.822357 0.962238 -1.453767 3.908154 0.450247 0.746947 -1.926279 2.593164 2.457051 -1.017604 -0.448361 -1.516440 4.034430 -7.135659 4.063769 -0.802146 3.647255 -1.909898 0.680266 3.883150 -1.372172 4.860456 -0.175022 5.051398 -1.481032 -3.174459 -1.813016 -0.965446 -5.153076 5.560130 2.330272 -0.213792 -1.812688 3.158097 0.122321 3.053933 -4.017509 0.855475 8.549923 1.936984 2.758343 -1.450044 -2.657642 5.076772 5.095611 0.360730 -0.163269 1.247984 -1.796107 -1.800240 -6.198310 1.161202 -6.000170 -0.405292 -1.255794 2.217072 4.687260 1.283178 -1.604421 1.669700 -7.143519 -6.206955 -1.521625 0.863408 -0.884129 -7.526339 -3.392255 -2.212631 -6.680724 0.905441 4.920577 -0.733816 -0.359136 -4.830087 -3.348338 0.136497 -2.350934 -2.960329 11.006225 -5.185717 -0.692138 -1.641812 -0.175014 3.815780 0.110971 0.443344 -2.255993 0.183101 -1.776186 -1.109011 1.763566 -4.510756 5.924493 -3.737610 5.015730 -3.199609 -5.435764 -3.468339 3.510763 -4.629542 3.133252 0.485397 -1.229764 -0.363248 -0.417286 -3.087622 -1.108697 0.208134 -3.472714 0.297174 1.735712 7.487997 -0.066156 -0.285864 -4.104556 0.601118 -1.071701 1.463117 0.910782 -0.905326 1.277148 -0.458327 -3.186230 4.625937 -1.682185 2.954689 -0.341651 -6.239198 4.120662 2.097361
*dt_kpop_lyrics_21 -2.424821 -0.030842 -2.102736 1.346074 -0.716321 -0.405176 -1.133867 2.063884 0.363487 0.416208 -3.050987 3.222424 -0.101631 0.278306 -1.097716 -1.479599 1.283994 2.419074 2.689926 -2.047712 0.436416 -7.179318 2.082044 -3.181125 -2.007218 -2.159642 5.560533 -1.278693 2.389380 -0.642051 -8.757545 -1.030292 1.689689 -2.923425 3.230032 -3.277956 2.896560 -0.146668 0.104483 2.954579 2.645863 -0.283050 -0.770090 2.735791 0.883460 -2.710278 -1.764097 2.438701 2.514989 9.880936 -3.309782 -8.056160 -7.744559 -5.490286 3.955925 2.877956 -1.651198 0.583165 4.991454 -3.177594 5.605923 1.880986 -1.712519 4.213640 3.522842 4.996490 5.337796 2.520701 -4.119922 -4.571437 -1.937948 -0.026059 -5.711466 1.938466 -2.361082 0.075137 4.296051 3.552114 -3.457471 7.590059 -1.386462 -4.785728 -3.512368 -0.730775 -0.455309 -5.369496 -5.745506 -5.533976 -0.523075 0.357771 7.560955 -0.176768 1.585074 -5.955681 -2.734472 1.893131 -1.543762 -4.222383 0.241112 1.148391 0.019300 -0.637126 -0.244390 0.187636 0.975042 0.797671 -2.519245 -0.736327 3.668873 2.252383 1.882315 -0.108575 4.173326 0.235583 -0.042620 1.343311 1.490903 4.793599 -2.865787 -5.815962 2.061561 -2.577185 -0.585848 -3.206344 1.393529 -3.534089 5.183863 5.082676 -0.786089 3.964453 -2.881824 3.190372 1.315484 -0.124785 -1.465456 4.514915 2.039490 -1.062308 4.146469 -1.556213 2.681751 1.045457 -7.555465 5.862232 5.007348 3.351044 2.294157 -6.781018 4.011696 -3.501152
*dt_kpop_lyrics_22 -2.102413 0.806139 2.326429 2.869176 -1.687012 2.267723 -2.528239 1.302475 -0.744084 3.978080 -2.983143 -0.067214 0.243535 0.137326 3.384340 -2.411238 0.109018 2.130790 -0.751301 -1.849744 -0.017902 -4.896067 -2.355567 1.923656 -3.571288 -2.015742 -4.110626 -1.117188 -0.942575 -1.279547 -2.641004 3.578905 1.309240 -0.035110 3.960502 -3.936813 6.785560 -0.130324 -1.149937 1.632715 -0.610814 2.862331 -2.668206 0.839083 -4.212384 -4.282423 2.139127 -1.870704 -5.864736 4.962003 -2.835182 0.640532 3.663721 -0.415829 4.440863 7.029839 -4.496761 0.505560 2.737212 -2.136672 1.108198 -4.032098 2.059243 3.958792 3.493691 4.824361 7.173813 5.804978 0.574852 -4.130734 -1.955788 -1.560053 -3.374124 3.646996 -4.598761 1.381854 0.952697 -1.527237 -1.413356 2.580186 -6.791973 -4.101193 -2.198284 0.421117 -5.968418 -2.410412 -0.901093 0.614518 -1.556224 -4.658741 4.410255 -3.770432 2.493026 -4.411457 -1.659186 -2.096284 -2.522089 -4.578490 7.993560 3.647775 3.412942 -7.705892 2.674835 2.459047 2.428174 2.256981 -0.982487 -0.863392 1.278063 1.509697 -1.812238 1.386579 4.307530 -5.482049 2.755875 -3.368412 -0.026054 2.402683 2.113620 -4.582124 0.280148 2.114239 -0.074127 -0.848065 -1.577624 -2.162634 -1.762901 0.358277 -0.679053 0.790771 4.787653 2.495151 3.645303 1.747899 -0.285382 0.009311 3.040850 1.067757 1.737159 -3.486869 -2.164426 4.935398 -5.677147 0.224500 -3.055527 -4.499153 -2.537484 -8.179752 3.216054 -0.770982
*dt_kpop_lyrics_23 -0.224691 1.125568 -0.724206 0.211510 -0.109077 3.711726 -3.720879 0.243454 2.248838 -1.983788 -1.519797 1.011225 -0.750469 -0.305736 -1.162687 -5.056865 -0.584731 1.967328 0.318928 1.078027 -1.023992 -1.908087 -0.981702 1.113869 1.614717 -1.949793 0.444368 1.308981 2.482046 3.274631 -1.322771 -2.510468 -2.272214 0.086776 -0.582260 -0.305752 3.242942 -0.280749 0.321065 3.848406 -0.260313 1.384688 -0.026475 1.719519 -0.189329 -0.086787 4.632502 0.117046 -1.172172 2.578411 -2.407962 0.114199 -1.774317 -6.323607 -0.217902 3.528043 -0.738903 2.888476 1.997719 -0.046644 1.282978 1.485056 -3.892940 1.929993 2.217558 3.196647 1.982214 0.231723 -2.170116 -1.973624 -0.721739 -0.503761 -2.587377 4.345004 -1.110458 1.297503 1.665278 -2.121062 -2.758339 -0.040466 -1.373486 -2.739337 0.377275 3.875493 -1.169627 -1.424768 -4.492852 -0.852403 -2.586199 -1.755588 0.195770 1.700418 -0.447557 1.099884 -1.373348 -2.316195 -4.218576 -6.540116 0.875635 -2.027011 0.712923 1.578953 0.039736 -0.017350 -0.245606 2.330206 -3.751690 -2.778190 -1.671317 -1.184015 1.441597 4.001420 3.505627 1.544540 -0.786625 2.180555 -4.524870 1.601146 0.301095 -3.447659 -0.378769 0.307187 -0.060210 0.472138 0.511204 -0.102707 1.537142 2.268026 -3.637380 -0.388368 1.599307 4.436888 -4.953189 -1.610252 -0.833084 3.874064 2.535113 -0.992727 3.656060 2.262450 -2.486105 0.527695 -2.172491 2.441004 -1.036373 2.000798 0.679643 -6.970924 1.260622 -0.862451
*dt_kpop_lyrics_24 -2.343935 -1.666701 -4.338339 -3.107002 -2.879601 5.642857 -4.632689 0.637351 -1.222693 -0.536781 -1.266462 2.717381 -5.852012 6.047275 1.471748 -2.997164 -0.880728 5.855208 3.242452 -4.256514 -0.216458 -3.257874 0.110395 1.741861 -4.978248 0.298684 -1.712046 4.383455 0.361934 0.239849 -0.303974 -0.012231 0.757894 0.930566 4.629244 -3.075612 -0.800626 0.150759 -3.025741 1.943111 -4.447782 4.801548 -1.440987 3.276022 0.267840 -6.147032 2.445101 -0.209500 0.411879 -0.130320 -5.415651 2.246374 -1.571141 -5.634319 -2.149441 3.172075 1.211396 0.039301 0.654304 1.614410 -3.569603 4.930272 -3.809117 1.609584 0.987687 3.295123 1.553981 0.945523 -5.778632 -1.115646 -1.364684 1.258083 -7.113747 5.331556 -0.945197 3.262905 -0.816397 -2.813944 -1.202251 3.096072 -5.823915 -1.180814 0.347830 2.469055 -3.963822 -1.802713 -1.272262 -1.120967 -1.590097 -1.374117 0.218533 -1.100412 2.243706 1.630860 -0.182801 1.949809 -4.115338 -5.829061 2.191384 -1.956871 -0.025399 -1.571887 -0.791843 0.153051 -1.210642 3.741695 -1.779733 1.982898 3.551633 -1.450626 -0.058220 5.216656 4.693248 -2.635610 4.538401 2.684638 -1.837212 0.963972 1.559508 -2.863970 1.464186 -4.492900 -2.495532 0.758942 1.725342 2.344711 -5.069478 3.727838 -3.813611 0.523745 4.284476 0.288566 2.811269 -2.745029 1.942695 0.886764 1.257828 3.870518 2.640319 -4.253571 -2.946598 1.502094 -3.760634 4.387410 -2.910535 -3.247081 -1.400155 -5.028943 0.620867 -2.212175
*dt_kpop_lyrics_25 0.407703 1.557237 -1.378896 1.246246 1.398545 3.491564 -1.276945 0.682649 -0.135410 -0.755871 -1.084144 -0.096903 -0.851806 1.972363 0.284522 -1.786221 1.507013 1.250412 -0.585348 -0.850686 -0.374899 -0.220480 -0.911086 1.082064 -2.291251 0.291250 -2.418564 0.197759 1.689912 1.885376 -0.089205 -3.546717 1.252874 -2.158673 2.338447 -0.474071 0.996504 -0.216311 0.633616 3.220438 1.144119 2.606388 0.389456 3.510716 -1.425639 -3.228321 2.519936 -0.128388 -1.480361 1.797057 -0.781242 -0.759225 -0.561932 -3.331362 -0.266344 1.475948 -0.930231 4.914394 2.532465 0.125297 1.143405 -2.127115 -1.888147 1.386479 1.600632 0.456302 -0.191845 -1.112383 -2.035663 -1.745386 -1.880375 -0.902656 -0.997979 0.361261 0.912727 1.667635 1.757271 -1.530932 0.344550 3.464832 -3.343994 -2.606383 -0.209922 0.014800 -2.573128 -3.218738 -1.160855 -0.360776 -3.231624 -0.092441 1.897086 -0.238376 0.563702 -1.428071 -1.648199 0.039460 -0.967089 -3.523849 1.875300 -1.357994 -0.456102 -0.113444 1.045795 -2.507520 0.022347 0.854618 -1.178285 -1.992712 0.808590 -0.656214 0.672335 0.497759 3.663940 -1.038004 1.144813 -0.079876 -2.155622 1.860997 0.904678 -3.465205 -0.961267 1.043029 -2.325057 -1.083534 -0.135118 -0.661072 -0.994669 0.311724 1.840811 0.890996 3.579983 0.895923 -0.932309 0.547787 0.864788 1.100843 0.927109 0.805485 -0.689483 -2.363899 0.025805 1.381012 -0.744598 3.683934 -1.895553 -1.690515 1.601731 -3.921158 1.457624 0.872763
*dt_kpop_lyrics_26 0.498350 2.503750 0.747311 1.707689 -0.356354 1.162060 -0.909179 0.592677 3.349463 0.316927 -2.281300 1.139088 2.423730 0.609173 0.224246 -1.556225 -0.000520 1.530934 1.131420 -0.793288 -0.170009 -2.230143 -3.224718 -1.067458 -1.220986 -1.086593 2.082789 -1.067922 1.244900 1.086485 -1.551583 -3.308021 0.680843 -0.395834 0.826670 0.279302 3.454217 -1.328609 -0.269365 2.388062 1.829902 1.910833 0.070450 6.508714 3.020292 -2.556053 3.097777 1.811206 -2.357832 1.471813 1.022486 -1.890003 -1.561798 0.380285 2.608489 1.710745 0.099335 1.773776 3.524851 -0.426604 -1.164925 2.256134 -6.106291 4.570426 -0.330339 0.890107 3.020304 -3.154398 -1.644145 -3.415926 -1.449050 -1.597585 -2.021983 -0.483068 2.185131 -0.625470 -0.460568 0.095980 -2.077334 1.928483 -2.835356 -4.186944 -0.681343 -2.038290 -0.262297 0.603438 -6.333600 -0.514464 -0.896648 -2.329462 5.299898 0.306831 -0.122088 -4.395170 2.013739 0.810068 -0.640183 -0.382698 0.860440 -1.603145 0.998848 0.442644 0.382641 1.346347 1.502813 -1.379574 1.137251 0.508093 3.048609 -0.531088 0.963638 -0.667365 4.090549 1.707056 3.249238 1.051398 -1.963178 2.016588 -1.428234 -4.058362 2.635553 -1.879916 -0.109546 -2.834275 -0.269164 -1.445403 3.829158 2.600600 0.006039 3.243826 -0.395815 -2.704335 -1.034899 -1.724667 1.386234 0.036404 2.452113 0.845657 3.370202 1.842478 0.718285 1.020450 -1.374944 1.681767 1.674342 0.492268 1.174828 -3.162866 4.698063 -0.389440
*dt_kpop_lyrics_27 -1.813677 -0.336837 -1.506788 0.628284 2.898124 4.324841 -0.271179 1.521658 -1.071836 -0.719648 0.248394 -3.252339 -4.228454 3.066725 3.747707 -4.085588 0.980721 -0.568758 -1.980385 -1.678522 -0.932978 -0.181475 -2.151291 -0.366482 -2.940823 -0.671244 -0.716621 3.305835 0.767271 2.218493 1.534260 -4.235504 -1.599859 -1.440135 2.887508 2.800705 -0.001903 0.025864 -0.993530 2.459545 1.448767 4.137843 2.312467 3.010483 1.135270 -4.509037 2.667578 1.714881 0.498192 2.226236 -1.745109 0.784584 0.455491 -2.436263 0.205907 1.756398 1.292020 0.988537 -0.478014 -0.145101 1.850615 -0.372390 -2.474470 1.578573 1.965989 1.376643 2.655516 -2.973698 0.346869 -3.624338 -1.777342 -1.222285 -3.584235 0.611396 1.401306 0.111180 -0.641036 -2.711907 1.770707 5.148914 -2.590809 -5.640715 0.777449 0.210278 -1.889302 -3.508340 -0.848782 -1.033645 -5.564905 1.480063 3.811714 -1.296141 2.370472 -1.581024 -2.918137 -0.421067 -2.308023 -5.205815 1.166750 -2.582472 4.965439 -1.685513 -1.571959 -0.704034 3.960726 -1.545707 0.020799 -2.698962 3.009756 1.979409 -0.550579 -0.840749 6.132250 -1.523187 4.154176 0.998328 -1.935040 1.452477 0.036452 -3.367523 1.749458 1.341618 -0.953641 -0.348323 -0.996831 -1.978207 -1.007767 1.296801 0.090936 1.813755 4.522551 -0.661067 4.496251 2.913122 -0.816196 0.844252 -0.789119 0.251821 -0.585423 -0.900317 -1.661873 0.545277 -2.454520 3.033565 0.158101 0.410331 2.952553 -2.140477 5.819316 1.498717
*dt_kpop_lyrics_28 -1.996728 1.810547 -5.221189 1.703590 -2.553338 1.959947 -0.566019 2.276259 0.622140 -3.409647 -2.046212 -0.612490 -2.493292 4.659465 1.643814 1.871805 -1.263411 2.448554 -3.078932 0.687017 1.691285 0.712264 1.476175 4.613980 -2.816453 0.617586 2.345927 -2.550659 0.345250 -0.826888 0.780061 0.911916 -7.347122 -5.617853 0.569818 -4.805859 0.513947 1.596649 0.974761 2.306563 1.846902 0.995356 3.703797 1.587877 -2.878851 -3.639377 3.375262 -3.104259 2.328467 6.499224 -0.695549 1.201397 0.401529 0.370040 3.476108 0.527351 -1.791469 2.302969 5.242742 4.558665 1.447114 -0.919674 -4.222679 3.682911 2.559523 6.092921 2.994929 -0.501518 -4.524878 3.591089 1.797692 -0.590261 -8.550144 -1.235623 -0.297260 3.072137 1.117714 4.060855 2.162499 2.348088 -1.229636 -5.935189 4.859929 1.566251 -7.383705 0.998185 -5.638802 -1.332995 -2.014430 0.725957 2.268745 -3.583048 -3.684278 0.251556 -0.318863 4.554313 -0.039145 -5.965893 2.673254 -0.358644 0.363961 -6.347333 3.459047 0.138227 -2.034276 -4.564894 -7.139660 -1.978142 2.288121 -0.899612 4.806255 2.429264 3.135736 -1.709552 -0.907295 1.516462 -0.636294 6.564845 -5.706960 -8.153686 -0.176664 0.297621 -4.897428 1.583166 -3.585852 -1.864486 -1.097342 0.827736 -9.658340 2.387477 2.045120 1.382218 -1.999980 -1.904542 -0.728876 -1.841617 4.281599 -0.662414 4.801979 -1.444248 4.117406 3.471312 -4.774470 3.514404 1.663817 3.969501 -1.543655 -5.258357 4.727957 -0.292215
*dt_kpop_lyrics_29 -2.123228 1.409413 -2.486488 2.403122 1.593383 -3.298936 -0.772271 1.255996 0.735730 2.771276 -1.079805 3.107449 4.012439 -2.106167 3.045323 -2.140806 -3.999935 0.278203 -0.850390 0.834023 -0.716045 -2.561081 -1.520952 1.741433 -0.724111 -0.406303 2.465010 -2.189737 0.031087 -2.043929 -4.044552 2.377169 -3.242454 -5.424018 4.341878 -5.826246 4.832908 1.296003 2.708201 4.611168 -1.912191 1.565255 -0.910466 3.062857 -0.794568 -1.235547 5.237306 -1.770407 -1.775689 2.633667 -0.375169 3.815212 -1.129004 -1.819940 1.138868 6.461437 -1.537578 3.114721 4.475348 -2.397450 -2.088004 2.211817 -3.825868 4.489717 2.865943 0.228552 2.654882 1.066632 -0.746047 -2.830439 -2.419829 -0.930640 -6.076709 4.420645 -2.469541 3.695064 2.633740 -1.534283 -3.496032 2.693896 -6.527198 -3.959607 0.120052 -0.848673 -2.379382 -0.348528 -1.659654 1.792196 -3.428168 -0.099694 2.689067 -1.099424 0.882400 -5.648631 -1.954172 -3.267315 0.550496 -0.678486 0.696722 -0.582861 -4.526587 0.540387 0.031775 -0.776685 -2.692834 -1.158141 -1.530029 1.743560 3.706401 -1.933776 1.700517 2.684197 2.196759 -1.299004 0.060607 3.856423 -4.365210 1.177941 -6.124944 -7.334609 1.157309 -4.414150 0.000877 0.130071 -2.662502 -2.772051 2.243447 -1.287247 -3.501358 0.696940 4.378799 4.440513 1.245285 -0.206993 -2.301640 0.092963 1.729482 1.350679 2.197095 -0.729989 0.424852 -1.848462 -4.334346 0.363917 1.862987 3.084982 2.018859 -4.820653 4.285349 -1.552114
*dt_kpop_lyrics_30 -3.412640 1.723018 2.481483 -0.551639 2.112148 1.695406 -0.351774 -1.492867 0.258854 1.605314 -3.437652 2.685358 -0.681290 2.700365 2.902604 0.140374 -1.759157 0.772214 -2.889995 0.332868 1.278393 -2.322610 -1.314470 0.405318 0.843663 0.498980 -0.160166 -0.529563 -3.917087 -0.713415 -3.954015 -3.124900 0.246424 -3.461215 4.077184 -1.831636 2.442171 0.987037 -0.276992 0.614226 0.169076 1.937195 -1.152901 7.738286 -2.183708 -5.460185 0.855912 -1.165031 -1.502424 7.314112 0.930337 4.868949 0.375163 4.057410 7.785314 4.193122 -3.964816 -2.166306 6.588124 1.005481 0.699308 -3.354167 -6.054247 3.790148 -0.662669 1.034870 2.352833 -0.093859 -0.604630 -1.855321 0.033365 3.717099 -8.321405 -3.821683 1.033920 0.333375 0.537938 -0.326270 0.071282 4.947924 -3.331993 -5.062453 4.090482 0.151184 0.278052 -1.777028 -3.937171 1.506252 -4.121583 -2.198112 0.250114 -0.365440 -1.632583 -5.548793 0.946315 1.195466 0.300541 -4.161153 0.821823 -1.472372 2.488347 -0.590281 -2.450566 -4.908445 1.651020 -2.917036 3.333015 -2.290503 4.754597 -0.995919 1.897446 -0.290454 1.163700 0.740570 3.890764 2.843809 -4.434227 2.737298 -0.245948 -4.712466 0.674184 1.663472 -2.284395 -1.372164 -2.841473 -2.215122 0.125805 0.713645 -4.255780 4.448445 2.022638 -0.896432 -1.188323 1.223992 -2.613549 2.724150 5.396275 -0.839158 -0.021962 -4.437958 3.203951 4.599287 -8.982910 6.325349 4.135862 1.868127 4.444397 -2.097472 0.973358 2.999894
*dt_kpop_lyrics_31 -1.519530 0.662573 -1.876180 2.529292 1.886389 2.944354 -0.028293 -1.698179 2.354765 1.500452 -1.357839 1.072054 -0.313545 1.408323 0.103342 -0.778026 0.309404 0.362508 1.716083 -1.112245 -0.035624 -3.220778 -4.111203 -0.326592 -1.793922 -2.869722 0.593028 1.747302 -0.348089 -0.034001 -1.858581 -2.542712 -1.779839 -1.085978 2.258756 -3.531966 1.224041 0.785308 0.229595 5.189070 -1.573226 -0.016026 1.161831 5.414407 -2.406614 -4.201767 2.856384 1.126839 -1.891194 2.301338 1.249954 -1.723625 -1.800382 -3.737079 3.908175 1.812532 -0.830936 0.680410 2.954449 -0.986600 1.632378 1.124348 -2.977242 0.679095 3.763893 4.389993 5.354937 -0.392386 -2.455635 -2.788249 0.511253 -0.742313 -3.531777 3.742613 0.680380 0.975453 2.627617 -3.703411 0.240715 1.604715 -4.914968 -2.213308 1.642826 -0.978236 -1.215883 -3.583929 -1.743011 1.308642 -1.547173 -3.298102 3.548495 -0.157756 1.635400 -2.533353 0.669988 -0.235605 -4.381739 0.122224 0.769241 -0.584037 -0.575083 1.174723 0.083511 -0.014287 -0.545306 -0.632827 -3.110086 -0.553532 1.483433 -0.122168 2.732016 -0.445288 2.497287 0.959418 1.672973 0.731268 -1.659978 1.435990 -1.865263 -5.460960 3.862755 -3.110442 -1.435988 -0.813194 -2.773858 -1.318365 0.128335 1.230489 -0.085788 0.010514 3.682922 -0.794369 -1.546902 -0.115349 2.558015 -0.955272 -0.595521 0.888942 -0.234601 -0.926746 0.481505 2.070168 -2.388976 0.393069 1.213916 0.665698 5.508396 -4.090923 3.740952 -1.944149
*dt_kpop_lyrics_32 -1.912729 1.263554 0.472370 -0.294712 -0.042631 -0.817289 -0.110753 0.182836 1.929549 0.431103 -4.983276 2.762131 1.295981 2.046292 2.890751 -0.913738 2.706894 0.334379 -0.962609 0.526300 1.202812 -3.019090 -2.887868 0.833531 -5.078090 0.881242 -0.987660 -2.063387 -0.360870 -1.465374 -0.095009 -3.894693 2.060786 -2.600530 2.197800 -1.466534 3.210147 0.723827 0.427434 3.151696 1.039367 -0.840547 -1.359279 5.534659 0.782765 -4.053308 4.344003 3.102006 -0.413191 3.508185 -0.528996 -4.687625 -3.244077 -3.505582 4.116854 0.414549 -3.273434 5.008227 1.640575 -3.172215 -0.185510 1.650851 -1.156546 1.859954 0.854100 3.983471 3.629584 -2.025165 0.538981 -3.607033 0.598512 0.613694 -6.298818 3.062758 -3.538420 2.461272 2.219360 -3.510238 -2.227268 -0.421709 -4.003900 -3.743754 -2.317778 -1.724571 -0.491665 -2.692072 -5.476599 0.169288 -0.668508 2.063342 2.213044 -2.350822 0.310013 -4.948927 0.144851 1.849099 1.242409 -3.455620 2.054167 -2.112992 1.572331 -2.218372 -2.078857 -0.683725 1.688847 0.719111 -2.340204 -2.720520 0.671313 0.512085 1.004707 -2.260690 4.865174 -1.123985 1.002319 3.518844 -0.894226 4.147663 -0.043285 -6.659373 3.101892 -1.734343 3.949318 1.808158 -1.341815 -0.883860 1.362732 4.691978 -1.602067 0.625258 -0.369448 -0.068229 0.145317 -3.038138 -4.248405 -1.394199 3.911891 -1.541676 2.838852 -3.086054 4.108490 2.814695 -5.157569 3.618870 1.395067 1.259615 -0.148064 -8.606178 3.363768 -3.419591
*dt_kpop_lyrics_33 -7.014283 -6.224611 -3.067998 -5.003154 0.991945 -1.845377 -1.574540 -3.119597 -0.269259 -1.672042 -5.455894 -2.771843 1.605823 4.259708 4.321221 -3.897458 -0.022078 8.606472 2.091866 -0.304099 1.898323 -2.852711 1.555694 1.512460 -4.171144 0.898553 0.489711 3.590667 -1.880928 -2.199264 0.200448 4.910719 -0.726086 -4.224064 3.854782 -0.412692 2.617249 -2.083051 0.831285 5.903843 -1.761115 -0.079614 -0.140352 9.062632 -8.860819 -4.398558 6.723702 -0.201150 -0.045165 2.313377 -7.251162 1.950252 1.612436 -4.321823 1.845287 2.433918 1.385517 5.273592 -0.394018 4.922037 3.137534 -4.561797 -3.147192 7.783367 0.127291 2.564472 5.259398 -2.646523 -1.263389 -7.385423 -2.378827 -2.661526 -7.531261 0.473500 -3.043937 0.710008 4.462297 -1.988962 1.379593 3.238042 -4.546725 -0.023572 5.718477 -0.207025 -6.738538 -3.250384 -1.082778 -2.397513 -1.037744 1.544144 3.400683 -4.117862 -3.139444 -8.626084 0.866284 -1.327352 -0.976732 -6.461810 -0.029889 -1.759636 0.468266 -6.122301 0.954974 -9.067473 2.041259 -0.782581 1.918875 1.400903 1.691844 0.029862 3.063014 0.831267 4.854920 -4.136627 4.438637 11.469992 -0.387896 4.448688 -8.374125 -5.482510 5.265454 -2.063413 -5.766977 -0.365405 -6.836734 -5.082658 -4.346744 2.481883 -2.946836 0.700135 -0.313611 1.005736 -1.244765 0.334780 0.648184 2.445572 -2.487352 4.880615 0.336869 -0.392978 3.904833 -0.532166 -7.567535 3.919195 3.713575 1.401004 2.510815 -2.854837 5.400328 1.605010
*dt_kpop_lyrics_34 -2.600039 1.441977 -1.218487 2.993995 0.201589 2.412734 -4.551007 -4.483988 3.646120 1.310882 -5.540456 0.762185 -3.269272 1.149377 2.309241 -5.413582 -4.219808 4.140162 2.329572 0.312926 -0.715847 -4.601097 -3.327931 0.092852 -2.729216 -0.521253 -2.567648 2.248228 3.431394 1.376869 3.113067 -0.618087 -3.516466 -5.531584 5.287734 -2.390559 5.898843 -0.815435 0.302854 0.992819 -0.371810 2.648312 1.198559 1.419722 -0.270693 -2.879467 2.686355 -1.216507 -3.574438 2.183844 -2.712966 -2.849910 -0.077857 -3.054628 3.980101 1.889283 -2.795506 1.533621 1.918688 0.854794 2.470612 0.213766 -0.886476 3.932576 3.482122 1.220562 2.844564 -2.353045 -3.665203 -3.470892 1.965785 1.845589 -5.468775 0.805401 1.348328 2.259137 -0.274407 -1.636686 1.345116 2.141598 -1.300835 -2.463295 -0.781873 2.523891 0.871450 -0.943500 -2.079715 1.570729 -2.312113 -2.875881 -0.202739 -2.715148 1.315381 -0.675800 -1.830043 3.369019 -0.965021 -0.591203 5.729303 0.050967 0.899269 -0.533990 -0.670015 -1.339914 -3.565677 -1.858413 -3.973924 -0.117495 0.525326 0.548920 -0.652889 2.159907 3.974359 -3.354638 0.092482 2.156160 -0.942343 1.542659 1.363342 -4.256467 -1.476152 -1.751184 -0.986491 -0.562296 -3.015655 -1.158255 -1.366083 -2.116447 1.324118 -0.283038 -3.137453 2.533939 0.006832 -0.311267 4.007834 -0.660053 -0.645559 -2.585186 5.301050 -1.480347 0.467472 4.536909 -3.677113 8.343664 2.285920 -0.632482 0.845801 -5.026781 1.268704 -0.651738
*dt_kpop_lyrics_35 -1.715430 1.957586 0.870436 -0.684997 -0.543087 1.895571 -3.123141 1.176668 2.629768 -0.498165 -1.531737 1.637344 -4.359545 1.094264 -0.542064 -3.811556 -1.445312 1.240129 -5.415502 -0.358612 -1.140630 0.520199 -0.940135 1.768915 -3.815675 0.183815 -0.887268 -3.124421 0.357441 -0.409513 -0.405527 -0.699857 -3.476003 0.544252 7.212975 -1.124588 2.643874 2.047500 1.390552 3.376863 2.304151 4.870829 -1.513858 6.639498 5.104199 -5.151601 2.826473 -3.537607 -1.459638 -1.036235 1.713553 0.028940 0.059225 -1.471861 5.166933 2.454351 -3.055442 4.946167 1.525470 -2.571851 0.246973 5.092855 -0.562694 5.184335 3.150547 1.969481 0.641394 1.255382 -3.138091 -2.277851 -0.905724 0.278393 -5.115926 3.579078 0.336227 0.903266 3.999131 -3.085571 -2.591730 1.971481 -6.108605 -3.371851 -2.849466 3.122682 -2.022285 -2.521405 -1.552800 0.371706 3.269197 1.501208 0.193787 0.293238 -0.582623 -3.642813 -3.943873 3.028159 0.717885 -5.046889 -0.603070 -0.955515 -1.775680 -3.522887 5.346203 -1.841929 1.684345 1.411345 -3.464673 -0.429303 3.981905 1.685934 3.090510 2.877781 3.653183 0.910498 3.709589 -0.577323 0.750358 -1.240582 0.774573 -3.991505 0.568657 -1.107479 1.895837 -0.721458 -6.951031 -4.284357 0.135280 4.207428 -0.439848 6.091590 1.356186 4.345230 -2.435516 -2.371737 2.083215 -1.321285 2.372524 -2.941580 3.544848 1.442339 -0.423461 -1.082537 -7.474936 2.032173 4.188764 3.317752 2.291448 -4.847605 3.836348 -1.398960
*dt_kpop_lyrics_36 -2.786840 3.395259 -0.807375 1.201064 -1.464380 0.942047 -1.671088 -0.312905 -1.671982 -0.187022 -4.799088 -1.074145 -0.190130 -2.300231 5.755713 -1.858312 -0.671686 4.193614 0.268512 0.069904 1.524360 -4.771550 -0.027628 -0.051731 -4.248153 -1.452753 0.319239 3.303193 1.065123 0.150230 -6.578096 -3.535478 0.847859 -1.736544 1.033946 -0.806588 1.129892 5.451958 -1.969713 2.410417 -1.992819 2.820000 4.141929 4.008861 -3.186043 -3.459308 3.272362 -4.095233 -1.137652 3.785790 -0.507992 0.119627 1.196174 1.614936 5.167971 -0.986075 -3.274792 -1.909212 3.539228 -0.795160 2.201047 -1.683785 -1.472399 2.324811 -1.785338 4.366992 5.052499 1.838587 -0.275620 1.348523 2.933722 2.697932 -2.300694 -1.087851 -2.725387 2.868231 0.122659 0.021728 -0.722910 -0.472674 -2.256297 -0.616764 3.956714 0.917530 -0.674997 -2.653331 -5.341137 -2.734572 -3.973192 -2.806786 2.743700 -3.562542 -2.109155 -1.746666 -0.258321 1.631725 -0.214849 -3.906050 5.195822 1.707588 0.810204 1.804232 -0.876552 -1.292085 -1.436048 0.324771 -1.341226 2.131122 -1.553303 -2.120892 3.331622 -0.744850 5.604484 -0.310355 5.414389 3.089370 1.309137 1.782421 4.029861 -1.424721 2.282168 -2.897503 -2.831659 1.899465 -0.715074 0.628387 -0.670995 5.923610 -4.663532 0.622274 -1.436560 -0.065855 0.655570 0.591141 1.452075 -2.550310 0.779242 0.554482 4.162720 -2.005706 0.624531 2.476853 -5.939574 7.001652 4.172681 -2.624779 1.932832 -5.699424 0.909824 -0.010984
*dt_kpop_lyrics_37 -3.918796 -0.919179 -1.273829 -2.124560 1.948902 4.720817 -5.942298 3.553501 -0.867566 -2.872256 -1.101250 -0.593801 -2.747137 1.392558 3.637366 -2.267765 -1.511270 3.145384 1.311778 -3.920023 4.153612 -0.239787 1.867229 -4.275339 -0.166290 -1.418000 1.443441 2.678987 0.285961 3.509995 -4.809692 -2.579313 3.494655 -3.214971 5.696566 0.023032 2.321814 2.616997 0.078703 3.792518 -1.883730 1.560460 3.103833 2.564475 -4.507266 -0.511740 2.840549 -1.462009 -5.294737 2.583212 -4.142528 -2.546067 -2.221396 -2.458616 2.669317 -1.147300 -1.712305 -0.968716 2.122726 -1.687420 -0.171795 -0.884292 -4.403984 1.503215 3.564268 1.681081 2.891878 0.556461 -5.500405 0.978484 -0.736813 -1.018911 -3.617673 1.715986 0.452942 2.550483 2.732064 -1.992033 -2.937452 1.831501 -1.244543 -2.042750 1.114122 1.476993 -1.883518 -4.085357 -3.892232 -1.547173 -5.463478 1.237591 3.998857 -1.177276 4.410356 -4.817212 2.895983 -1.971476 -1.993043 0.057249 1.017192 1.123280 -2.815908 2.334189 -0.390820 -0.897304 -0.261559 -0.738959 -3.705592 -0.637320 2.520732 -1.704503 1.379969 -0.122983 5.130166 4.162798 5.335019 1.309714 0.007798 5.160263 -4.966007 -1.046077 0.214937 -3.512897 -4.376088 -0.259071 -0.759552 -2.195260 2.098733 6.349700 -1.998889 -1.020229 3.262867 0.990875 -0.028033 2.701224 1.998650 -1.163796 0.888200 1.357579 1.231317 0.200037 0.884647 -0.748519 -0.596697 5.306455 2.952598 4.283268 2.647255 -4.906796 2.640726 2.210154
*dt_kpop_lyrics_38 -1.875573 0.266625 -1.841077 4.319005 -2.488763 1.206515 -0.333821 -2.484121 0.103464 -1.757954 0.075179 0.127217 -1.319393 1.274882 3.802002 -2.108114 -0.300946 1.228416 -0.360681 2.816556 -0.578351 1.689702 -1.524544 0.111894 -0.724672 -0.721968 1.600824 0.120990 1.948267 -3.640791 -1.690511 0.453138 1.887864 -4.081539 2.747301 -1.129909 3.178419 1.543738 1.417948 7.178685 1.410991 2.947946 -0.844503 1.027284 3.557717 -4.508844 3.073714 2.227322 -0.430167 2.368455 1.063874 -1.936361 -2.353642 -1.304100 3.647953 -1.489357 -1.135765 -1.582373 1.155424 -1.877948 2.100784 -1.529911 -2.834551 5.409244 0.561282 0.842587 8.093548 -3.045817 1.825520 -5.786359 0.464020 -0.446739 -0.043334 -0.711459 -1.568599 0.666640 2.057311 -2.806699 -0.873010 5.782859 -2.280958 -3.958815 1.398405 -0.124277 -1.595155 -0.176912 -5.628685 -2.789321 -3.824545 -4.116167 3.885627 2.031972 1.514156 -4.727643 0.574471 -2.749460 -1.429314 -3.592185 1.343102 0.015485 2.336732 0.302113 0.011722 -1.654380 -0.250504 0.496684 -1.013249 0.169047 3.955035 1.833278 3.205195 -1.390637 2.670587 1.275178 0.571339 1.589199 -1.903678 3.297430 -0.847135 -4.350183 -0.062599 -4.007637 -4.435725 1.944655 -1.309198 -0.932226 0.036557 9.200728 -3.695225 2.441782 5.902995 -2.073310 2.466866 -4.309579 -2.135281 -0.465275 1.715291 -0.037339 1.206895 -0.471594 -0.716253 -1.526178 -1.613981 2.741267 0.218892 -2.450314 -2.305715 -5.918213 2.600382 2.451285
*dt_kpop_lyrics_39 -6.196247 4.759861 -5.321871 1.365028 -0.501062 3.955724 -0.536955 0.097599 -0.110896 2.065985 0.537567 -2.957930 1.489611 1.707428 2.504613 -1.774752 -1.543554 1.059751 -1.086104 0.751317 -1.242737 0.691847 0.136998 0.286581 -2.658822 1.238499 0.304408 0.492733 -1.727344 -3.260321 -4.068814 -0.670411 1.512028 -5.127211 3.218261 -3.134281 1.512884 2.279579 -0.465563 3.683609 1.910510 -0.542645 2.472662 5.847128 -5.918678 -3.729065 3.115897 0.989619 -0.158360 5.085974 2.804674 -3.056266 -2.002167 -4.059521 6.562684 0.643709 -3.061774 5.185398 -0.551771 -0.194103 1.660769 -1.787171 -1.922797 2.594732 3.637506 2.166902 0.993451 -2.767738 0.557211 -2.794343 -3.056710 3.296049 -4.167033 2.376650 -1.706972 4.104138 4.823648 -1.096794 -1.248442 1.661654 -3.167364 -2.643943 3.980420 -1.702614 -2.324992 -3.905515 -3.533219 -1.656015 -3.142233 -1.931737 1.503553 0.840863 1.640613 -4.875654 -1.207279 1.013743 -2.323459 -3.341885 1.362028 1.749220 0.585429 -2.560819 1.288439 -2.216776 -0.296612 -0.149324 -3.400197 1.225939 -2.100259 0.044024 1.582247 0.583911 1.927282 -1.645186 4.160009 1.640557 -3.210565 4.005872 -1.977171 -2.123106 2.192507 -1.091192 -1.926083 -1.941205 -1.416114 -2.508856 1.603443 4.849179 -2.304436 3.965487 -0.466741 3.172870 -0.467124 1.272193 0.462449 0.681875 1.430560 -1.955379 -3.994158 -0.515754 -1.882248 3.717718 -1.940026 1.044646 3.362036 -0.081811 1.408946 -1.500181 4.635387 2.447025
*dt_kpop_lyrics_40 -1.008354 -0.391958 -3.331970 1.820680 0.771542 1.642865 -3.146422 0.910846 0.231842 -1.062660 -1.621978 0.865688 -1.853628 1.354157 0.053866 -3.796114 -1.043859 -0.289281 0.085422 0.032988 0.579683 -1.224345 -3.303181 -0.545869 -1.530969 1.048386 -2.684822 1.231167 -1.023534 -0.768394 -0.937007 0.540417 1.381465 0.697077 2.755759 -0.486738 -0.413906 -0.248631 -1.317522 2.460614 0.896157 3.179526 0.846519 3.445561 -0.908985 -2.206402 1.450664 -0.442203 -3.343897 2.646327 -2.088559 0.146096 -0.749161 -0.803618 0.120524 1.073456 -1.720183 1.793130 2.367432 -0.489188 1.754693 -0.309379 -1.838076 2.724182 2.944294 3.076168 1.518099 -2.215967 1.445058 -2.085704 0.981734 1.103740 -2.577870 -1.178174 -1.172198 0.353726 1.336249 -2.094672 0.073540 1.254706 -2.660267 -4.494304 2.106559 -1.391943 -0.723505 -3.163270 -3.389996 1.003082 -3.728777 0.689508 0.686972 -2.001769 -2.352663 -2.908857 -0.913402 -2.260939 -0.760327 -1.946047 0.650033 -1.771362 -0.142086 -2.108816 1.084114 0.273929 -1.042335 0.372328 -0.192039 0.023892 3.581186 -2.008697 0.657859 0.401349 4.951187 -0.709833 3.967167 -0.352098 -1.628911 0.221988 -3.123958 -1.144230 1.629400 0.111368 -0.462201 0.035313 -2.098950 1.287425 0.004056 2.738981 -1.422560 2.044712 2.700625 -0.900009 0.017958 0.777148 -2.315106 -0.217471 -2.156285 -1.635905 1.968833 0.483851 0.021138 -0.375593 -2.900180 2.216372 -1.095609 0.958958 0.141188 -2.858915 2.641443 0.163817
*dt_kpop_lyrics_41 0.082388 0.591879 1.290609 0.357220 -0.715875 3.966184 -3.386863 0.339742 2.752303 -3.068344 -2.786739 0.645253 -1.002284 0.170628 0.342724 -0.869711 -0.301378 1.191845 -1.616924 -2.227299 -1.687037 -1.867561 -4.229102 1.567616 -3.482129 -2.533051 -1.308526 -0.734850 -0.265586 -0.748430 -0.105491 -2.293922 -0.536440 0.666532 2.783996 -1.953112 4.129697 0.057934 -0.208031 3.158953 -0.833928 3.373404 -0.713103 3.350744 -0.216059 -2.844655 2.649727 0.366262 -2.264579 2.088833 -1.134856 1.531015 1.233980 -0.686285 3.628827 1.152639 0.865453 1.951091 2.656435 -1.723443 -0.277927 -0.057249 -2.367467 0.942950 -0.669425 1.593713 1.430237 2.521249 -2.257102 -2.131094 -0.317515 0.711126 -2.372063 -0.257865 0.741286 -0.707850 -0.303273 -1.951360 1.631368 2.033382 -1.637817 -3.507070 0.674597 1.372266 0.294015 -2.619264 -5.048266 1.210984 -1.683390 -2.014257 0.222807 0.214616 -0.632701 -4.101325 -0.858367 -1.166755 -1.882210 -2.573727 0.396296 -2.099395 0.860634 0.829364 -1.552007 0.572769 -0.200821 -0.829425 -1.203985 -1.712286 0.917506 -0.902106 3.360467 1.850799 4.308198 -0.504815 1.852718 -0.475435 0.318403 1.339586 -0.775671 -3.055543 1.800436 0.027833 -2.120358 -2.378400 -2.995149 0.783599 2.976504 2.747739 -3.125520 -0.310154 1.901751 1.040938 -3.330513 -0.980761 1.707815 0.149332 -0.858211 -1.770811 0.778369 -2.201217 -0.184108 -0.947186 -2.289280 3.821356 1.265861 -0.862243 -1.471485 -2.091741 1.447433 2.012407
*dt_kpop_lyrics_42 -1.376978 -0.802106 -1.466256 -1.001883 -1.875634 3.405433 -4.402540 0.002455 0.497568 -1.241341 -1.053642 0.635996 1.479720 2.278434 0.841223 -3.028171 -1.168738 1.905600 -1.373934 1.154670 -3.284283 -4.638001 -3.067060 -0.261969 -0.481490 -1.341526 -2.538453 1.859895 -0.831546 0.865769 1.907294 -3.510435 0.877675 -1.213301 1.444814 -0.433433 0.181459 0.598206 -0.993195 2.322554 0.890520 4.153072 1.144613 -0.149027 -0.532899 -3.060439 3.747801 2.273565 0.725126 2.624093 0.714482 -0.188265 2.486354 0.652150 -0.320573 1.459174 -2.851846 1.501241 3.100468 -0.656166 0.665023 -0.769901 -4.825093 1.408602 1.418782 -0.031960 0.965838 -3.252185 -2.310525 -5.883680 -2.474428 0.333590 -2.064482 -0.562610 0.069020 0.497765 1.324460 -2.246557 1.517073 3.221965 -4.653766 -3.755504 0.960341 -1.445998 -2.120740 0.763277 -1.261851 -1.355638 -2.824554 -0.461350 3.649677 -0.616035 0.591476 -3.874511 0.232028 -1.770490 -1.116014 -1.884722 2.102930 -2.603762 1.554848 -2.963751 -2.035643 1.361482 0.098731 -1.866441 -0.999457 -2.041004 2.685520 3.368034 3.247378 0.236849 4.835836 -1.883753 3.485852 1.452204 -0.815465 1.161742 -0.391058 -7.241537 0.572239 -2.055177 -2.173762 -2.987549 -1.966339 -0.862238 0.908424 4.843400 -1.414922 1.000044 0.090628 0.919492 -0.497552 1.861534 0.503445 0.212189 1.487656 -0.873169 2.231586 0.454271 -1.170485 0.842128 -1.026331 2.319475 -0.379696 0.330387 0.782644 -2.938402 0.727609 0.113816
*dt_kpop_lyrics_43 -10.018934 2.494068 -0.876931 -2.592363 -2.260722 -1.766176 0.516063 -3.201553 1.621587 -0.113489 -1.480907 0.487331 -1.402251 -4.586971 -0.505843 -0.170181 -1.645557 7.276070 0.264344 -3.379578 1.984879 0.860295 3.045506 -2.298557 0.339776 1.962352 1.284904 5.901400 -1.398127 4.284667 1.317321 -4.005525 1.141197 -4.497731 1.452202 -2.782150 4.194863 7.388776 1.755582 2.477945 4.951081 6.895111 5.646361 4.131064 -6.894087 -1.845706 8.531031 -0.835029 -5.084035 -1.173151 -0.613400 1.636227 -1.955442 1.128998 0.289007 2.695346 -2.345761 0.309795 1.112440 0.675321 2.257242 -0.144290 -7.600186 1.997773 6.788349 -0.321624 4.635396 -2.801804 -5.136518 2.346340 -2.128019 -0.975944 -10.071114 3.174669 -0.424831 -1.570052 5.045857 0.447123 1.537966 5.447779 -1.637845 -3.605559 -2.403564 2.645564 -0.706573 -2.828722 -5.027773 -3.011926 -2.095406 -0.064422 8.120502 2.751903 -4.183825 -4.250747 -2.497746 0.248321 1.064449 -3.894453 -1.482442 -1.864426 1.158927 -6.038005 1.651770 0.691092 -1.442795 0.271420 -7.272803 3.969638 -2.373323 -0.004427 2.969182 0.758912 2.159468 0.783098 7.828555 2.660695 -3.038876 -0.630867 -3.560472 -7.427280 1.025854 -4.429191 -2.872197 -4.424267 -4.909454 -3.524872 -0.163635 4.430990 -9.428373 2.108914 -0.197855 -0.116383 0.530258 2.542690 4.092453 -2.037974 -0.933661 1.648714 4.255004 1.998787 3.772508 0.525393 -3.865712 4.770172 6.445189 -0.985035 7.204760 -1.118326 5.078840 -0.276974
*dt_kpop_lyrics_44 -0.669079 1.241032 -2.459761 -1.407815 0.410097 0.564159 -4.842332 -0.225906 -0.017468 -0.887492 -0.330451 0.081420 -3.497170 2.606876 0.591074 -4.422576 -4.330152 0.748784 0.749571 -0.611472 0.880430 -1.691571 -2.309035 0.457987 -0.205404 1.478670 0.789924 -1.098757 -0.991631 0.047520 1.909858 -1.343276 3.028894 -1.914495 2.878698 -0.489645 0.147766 -0.661604 -0.776584 2.982939 -0.759091 1.595460 1.066425 2.475248 0.196367 -3.185899 3.516322 1.873657 2.231181 3.099800 -2.159569 -3.019712 1.315755 -2.238229 1.579306 2.471437 -0.199727 -1.842727 2.321098 -3.089310 1.955747 2.783917 -3.103454 3.371129 4.251400 0.448991 1.235808 -1.044479 -2.351791 -3.295150 1.615703 0.162995 -3.575868 2.123402 0.279121 2.011121 -0.530064 -2.707004 -1.496108 1.822935 -2.004618 -6.469006 0.181413 2.403746 -4.568322 -1.471012 -4.658334 -1.372231 -2.492097 -0.031996 -2.092994 -2.849028 -2.721360 -2.121113 -2.368016 0.883877 -2.115987 -0.386607 2.428922 0.321280 1.499607 0.170266 1.212058 -0.168203 -2.210957 1.754024 -2.730889 1.642632 1.546156 2.196639 -0.363454 0.463117 5.308220 0.329830 4.043786 2.128994 -4.586200 4.427427 -1.041862 -0.664921 -0.471810 -3.360958 -0.413673 -1.296458 2.040700 -1.280041 0.148367 2.613938 -2.988773 6.965838 3.377801 -1.171297 0.491732 3.185220 -2.786293 3.050000 1.404958 -3.924037 0.672316 -2.008736 4.260207 1.983679 0.226938 2.459700 -1.320857 1.253467 1.641202 -5.917023 2.614362 1.104442
*dt_kpop_lyrics_45 -0.841685 -0.482756 0.742224 4.743199 0.851933 1.895673 -5.267217 1.532011 2.342914 -1.373541 -5.775609 -0.918572 -0.569446 -1.959296 1.969939 -1.741020 -0.363370 2.028975 -0.701684 -1.042138 -1.484407 -2.706881 -2.719331 0.519881 -5.715266 -0.712556 -2.159755 0.972977 1.449858 -1.935802 -4.444776 -1.866503 3.947604 -2.676036 4.714229 -2.659151 1.955786 0.965990 -1.114642 -0.942218 -1.279191 2.410661 0.964249 3.364034 -0.750558 -3.455207 4.016270 0.878903 -1.040730 6.216300 0.914874 -1.193445 -1.742037 0.016189 1.714967 6.320517 0.793605 2.783794 4.097764 -0.303893 2.928033 0.450317 -2.952277 4.880217 3.485701 1.512213 0.765683 -0.853547 -6.801254 -2.366339 1.728601 2.044797 -0.017236 3.842085 1.318204 5.839704 3.080622 -0.513448 -1.374044 1.064221 1.246454 -5.546751 0.294935 3.602790 -4.914616 -3.502638 -3.573655 0.271441 -1.665703 -0.256816 3.633203 1.850075 0.326664 -5.260017 0.726978 2.635552 0.524951 -3.787366 3.374423 -3.032559 -1.280504 -4.360060 3.073631 -0.971938 -1.030595 -0.961899 -2.751894 -3.951095 -2.946075 -3.805291 -1.320198 -1.017702 5.229509 -0.011779 3.027812 -1.483281 2.544000 5.126444 -0.624959 -2.858995 -1.157931 -3.416831 0.424597 0.234620 2.084939 -1.772029 0.770702 4.109411 -0.240029 -0.090531 2.824425 4.106993 2.146518 -1.504055 1.653951 -2.313795 1.863034 4.023111 -0.121880 -4.188570 -2.589466 2.483702 -3.154457 2.645465 -0.233715 1.097734 2.904386 -3.552919 0.394746 0.529606
*dt_kpop_lyrics_46 -2.497423 1.030459 0.869315 1.385540 -1.264051 1.900971 -5.500244 -0.518717 1.884842 1.335276 -2.869985 -0.458482 -3.874851 -2.614511 3.301116 2.339239 0.592693 1.611535 -0.073945 -1.275753 -1.770124 -1.611200 -1.703543 -2.871795 -1.610641 -0.092758 2.244445 0.684186 -2.501858 -4.197135 -0.715516 1.282662 0.733336 -0.234379 2.560028 -6.917503 0.314560 2.960148 -3.384907 6.504881 -1.560282 2.103200 -2.918565 4.608882 -1.456296 -5.607312 5.722690 1.243326 -2.460645 1.056891 -1.555555 0.974418 2.104672 0.674787 5.897454 0.975561 -2.099628 -0.803267 0.554808 1.427657 -5.279240 2.872214 -1.687423 6.517465 2.154174 2.366210 7.279397 1.742752 -2.078542 -1.267892 0.037950 2.617576 -3.783647 -0.510941 -3.074728 -0.695264 1.097893 -2.184913 -1.878814 2.263898 -3.609156 -2.196669 3.599192 0.164016 -0.623938 0.038791 -5.418651 -3.029775 -4.250429 -3.491282 -1.748466 -3.281501 -5.012578 -9.583872 -4.217842 -0.803071 1.199494 -1.499919 1.386958 -1.005902 4.488719 -3.128070 -4.095059 4.658382 0.315917 -3.502292 -1.874455 0.671345 2.373199 -1.663706 1.127693 0.592414 0.048953 -0.868993 5.717948 3.070621 0.552089 2.489343 3.605509 -3.012022 5.841580 -2.701238 -4.060159 1.966034 0.915687 -0.454942 -2.245946 5.751414 -6.642112 2.240975 1.347619 -0.820276 4.400655 -0.361798 3.198090 -2.184849 -4.860736 1.047698 0.456100 0.644449 -1.746616 -1.082238 -3.483315 4.828583 -1.444510 3.385864 1.257748 -3.881778 4.096418 -4.623680
*dt_kpop_lyrics_47 -1.607123 1.744415 2.624307 -1.103680 2.306994 3.553093 -3.611629 0.552632 2.544671 -3.402946 -1.630693 0.041360 -0.258564 0.615895 -1.418383 -2.805985 1.367881 0.971482 -2.824455 -1.383729 -1.096971 -1.777731 -2.344239 -0.118785 -3.269296 -1.981679 -1.083647 -0.203145 -1.064367 -1.645131 0.387823 -3.157420 -0.585560 2.677809 2.292814 -2.424671 3.726795 2.326369 -1.977323 3.956202 -1.727018 1.748720 -2.870677 2.366154 0.181452 -4.103219 3.656774 0.056361 -1.768100 2.028104 -1.551510 0.321049 1.950022 -1.839163 4.588635 -0.920009 -0.317882 2.286981 3.994031 -0.682300 1.365724 0.916363 -3.946596 2.341799 0.320773 3.240057 3.139342 1.321723 -0.109174 -2.538272 -0.531675 -0.258118 -2.379260 0.021783 -0.033073 0.149010 -0.114075 -1.736595 1.393493 1.920938 -0.599761 -2.968076 0.425736 2.503423 -1.237299 -4.830832 -6.914616 -1.697479 -1.807030 -2.320067 0.031736 0.247584 -0.977966 -3.546214 -2.089105 -0.436006 -2.633667 -1.805671 0.376248 -1.710525 0.461952 -0.441861 -0.607694 1.952232 -0.390626 0.274868 -4.058487 -1.011635 0.401262 0.113395 2.656643 0.348090 4.937880 0.289450 1.609970 0.772914 -1.884467 0.714858 0.395639 -3.866218 2.078376 0.411459 -0.825116 -3.560393 -2.950087 0.566115 1.929854 3.419328 -2.533610 -0.421140 1.837240 0.951830 -1.565871 0.620287 3.461081 0.428579 -0.894176 -0.868123 0.922270 -0.148103 0.675171 -3.384926 -1.020796 2.450558 0.105065 0.153393 -0.472412 -3.007973 0.360625 1.650346
*dt_kpop_lyrics_48 -0.594897 -0.834344 -3.458882 2.077320 0.326988 1.822226 -2.611497 0.931371 0.367152 -0.951752 -1.817562 0.820678 -1.670428 1.046363 0.441114 -3.340110 -1.049028 -0.132843 -0.034285 0.072574 0.514505 -1.300753 -2.847218 -0.533087 -1.283977 1.337775 -2.900323 1.777497 -1.165652 -0.713273 -0.556165 0.403897 1.601761 0.435566 2.574833 -0.524462 -0.813781 0.007932 -0.877883 2.958673 1.338376 2.651739 0.858582 3.657119 -0.362090 -1.846908 1.217617 -0.308196 -3.445745 2.911144 -2.899185 0.512400 -1.074286 -0.794403 -0.376008 1.318635 -1.750127 1.522843 2.542979 -0.516056 2.310351 -1.169811 -1.484511 1.962231 2.315962 3.333439 1.842247 -2.178398 1.502203 -1.613955 1.199511 1.189634 -3.198224 -1.304454 -1.227067 0.655468 0.416346 -1.827021 -0.332707 1.822854 -2.192089 -4.713890 1.905784 -0.925405 -0.776394 -3.189121 -2.798892 0.506708 -3.739691 0.328548 0.740474 -1.856621 -2.222526 -3.140953 -1.439530 -2.278579 -1.339491 -1.677970 1.121480 -2.408939 -0.040300 -1.707793 0.881281 0.184464 -1.468208 0.667279 -0.019940 -0.092378 2.604414 -2.168960 1.463439 0.540522 5.176938 -0.904256 3.538759 -0.096897 -1.145902 0.490025 -3.019140 -0.996504 1.194632 -0.151939 -0.901788 -0.901972 -1.842448 1.604787 0.037086 2.170908 -1.477099 2.060163 1.764944 -0.288198 -0.150405 0.650814 -1.916488 -0.369544 -2.120432 -2.083444 0.853373 0.562164 -0.981516 0.005181 -2.035657 1.463383 -0.751115 0.638250 -0.567408 -2.655289 2.938564 0.309899
*dt_kpop_lyrics_49 -0.491611 -0.330112 -3.325416 2.250156 0.358998 1.868297 -2.651146 0.744641 0.295742 -0.830077 -1.721723 0.469762 -1.898492 1.237105 0.100500 -3.173864 -1.089575 -0.054396 -0.214201 0.157964 0.331643 -1.315070 -3.247993 -0.607701 -1.451801 1.559954 -2.549680 1.734275 -1.128450 -0.738726 -0.582418 0.599060 1.641894 -0.130155 2.383035 -0.417460 -0.427537 -0.145704 -1.059618 3.149053 1.132767 2.956430 0.423220 3.728250 -0.599004 -2.387993 1.376033 -0.593574 -3.712617 3.160509 -2.540096 0.395225 -1.033672 -0.777868 -0.479619 1.198094 -1.697258 1.625191 2.095663 -0.190983 2.408227 -0.664962 -1.562487 2.268495 2.689802 3.224742 1.934518 -2.158797 0.982704 -1.502621 0.856769 1.147864 -3.429907 -1.138732 -0.960682 0.496778 0.561803 -1.829847 -0.382532 1.802842 -2.452790 -5.237236 2.030187 -0.956002 -0.266025 -3.244424 -3.086220 0.757938 -3.534057 0.280020 0.684688 -1.878840 -2.196971 -3.021187 -1.502301 -2.517605 -0.992671 -1.968212 0.802039 -2.309544 -0.112565 -1.557766 0.917538 0.436086 -1.291167 0.636652 -0.177723 0.108745 2.413836 -2.015323 1.189655 0.578004 5.027965 -0.820703 3.743901 0.072153 -0.917979 0.358633 -3.053012 -1.057095 1.063363 -0.545804 -1.157474 -0.842554 -2.157361 1.623694 -0.186337 2.315890 -1.057537 2.234276 1.558085 -0.690617 -0.071785 0.490581 -1.895156 -0.100560 -2.317348 -2.415082 1.099661 0.812175 -1.000044 -0.484309 -1.739818 1.892695 -1.148576 0.523946 -0.633478 -2.687336 2.928146 0.116385
*dt_kpop_lyrics_50 -1.413314 -0.426418 -1.311660 -1.010183 -1.611435 3.504133 -4.545011 0.120558 0.634625 -1.324794 -0.801450 0.697888 1.651316 2.468992 0.554383 -2.764171 -1.249792 1.773448 -1.373291 1.092474 -3.174900 -4.449565 -3.010050 -0.103121 -0.640466 -0.977845 -2.497532 1.756817 -0.419396 1.156455 1.848417 -3.314995 0.813186 -1.306072 1.653663 0.020237 0.032358 0.410965 -1.070887 2.410619 1.030795 3.941649 1.084896 -0.314410 -0.703844 -2.900279 3.879029 2.200877 0.975607 2.821724 0.624560 -0.362088 2.619664 0.677011 -0.081888 1.149597 -2.719346 1.306273 3.394127 -0.878708 0.598269 -0.805362 -4.996771 1.363498 1.214965 0.012548 1.083968 -3.318480 -2.035429 -5.903628 -2.537870 0.672815 -1.948691 -0.732617 0.041106 0.437082 1.161523 -2.471057 1.333203 2.818017 -4.513134 -3.523722 1.169136 -1.686704 -1.447804 0.887112 -1.367451 -1.461084 -3.005016 -0.819249 3.478768 -0.629460 0.362787 -3.969974 0.138083 -1.522591 -1.092366 -1.674458 1.913096 -2.427773 1.405857 -2.372627 -2.186983 0.803644 -0.133952 -1.674322 -0.368157 -1.764864 2.764535 3.327608 3.635726 0.090968 5.053183 -1.964124 3.312423 1.371090 -1.193762 1.354516 -0.124979 -7.020355 0.473704 -1.785393 -2.086696 -3.087371 -2.156438 -1.019074 1.313056 4.693171 -1.281364 1.319783 0.184216 0.860899 -0.459375 1.690872 0.180908 -0.058030 1.575440 -0.650618 2.410041 0.384125 -1.334424 1.014879 -1.313980 2.454044 -0.215209 0.293214 0.657443 -2.803359 0.534708 0.220834
*dt_kpop_lyrics_51 -3.817802 -1.861372 -3.867522 -3.542847 -1.004900 6.379916 -1.706659 -0.940660 1.561712 -3.752709 3.744499 1.027470 1.458046 4.560288 0.764387 1.589027 1.535292 6.945435 -0.823838 -2.153881 2.435522 -0.880331 -3.743490 -3.073416 -6.717870 3.253211 -0.735603 2.366147 0.077263 1.369268 0.188937 -0.397304 3.288195 1.243800 3.003897 -1.604310 2.103649 1.055913 -1.784153 0.414924 2.637823 6.575466 1.984239 5.226726 2.455999 -2.073563 1.617428 0.983522 2.449166 3.565424 0.842357 -0.026430 -0.849830 -3.499446 4.016236 6.294561 1.174605 3.575489 0.729222 0.977740 3.170748 2.262420 -3.975977 6.010923 3.725318 0.465307 3.746742 -4.841717 -2.834789 -4.737478 -2.456608 -2.326381 -4.746850 1.101173 0.610277 2.671964 2.864138 -1.512256 -1.550626 4.538648 -4.188147 -1.600428 1.748597 -1.768148 -3.481882 -4.906927 -2.824121 0.047113 -5.281089 0.624329 0.427796 0.210695 1.253005 -1.806395 -0.731890 1.335766 -4.312701 -3.994971 -1.457839 -4.132884 1.738912 -1.901124 3.775630 1.185276 5.841820 -0.619752 -2.122991 -3.269694 0.900978 -3.220562 3.529211 3.720266 5.322772 -0.806627 6.220588 0.661928 -7.500494 -0.654456 -1.172394 -3.692216 -0.100075 -6.481315 -1.084801 -3.595814 -2.747845 0.423092 0.425603 4.630141 -0.864536 2.080832 5.147644 -2.099504 1.137141 -1.416050 0.027329 0.401460 -0.426254 -0.560017 -4.767172 3.323366 -1.863635 -0.972288 0.534122 -0.542173 1.506760 1.172117 -0.894723 -5.199337 9.014338 4.453999
*dt_kpop_lyrics_52 0.421102 -0.914012 -2.380648 3.114702 -1.008364 1.917006 -3.923400 4.411895 -1.234166 -3.508341 -2.928947 -1.811834 -2.244862 -0.306107 3.781755 -2.685111 -0.225623 1.755760 -4.621008 -2.795349 3.027326 -0.735106 -4.079626 -5.458705 -6.365406 -4.163390 -2.584090 1.889000 -0.941851 -0.142719 1.739681 -0.756391 -0.210097 -3.031967 5.595662 -2.442120 2.876168 -2.312636 -0.912257 5.545799 3.547095 -2.479255 1.301670 5.157048 4.208251 -5.594991 0.293912 0.546717 3.957010 6.748145 -5.001831 0.080056 0.581801 -1.811191 -0.667684 -3.895328 -1.800994 3.059309 2.267450 -0.652743 3.341274 0.265995 -1.820596 3.204360 5.623645 5.881371 6.641005 -3.287071 -2.557799 -0.960869 -0.942556 0.587983 1.306825 0.932513 -2.960640 5.274728 4.949501 -2.127796 -2.567344 1.819104 -2.231718 -5.446050 3.221606 3.816333 -4.029830 -1.218410 -0.192552 -4.385482 -3.875834 1.699336 2.809902 -3.127745 -0.025418 -6.675892 -0.675827 -1.265677 -4.050702 -2.226605 -1.701637 -0.613791 0.118968 -0.999220 1.233863 1.252908 -2.255951 -0.338189 -5.192209 3.679388 7.964336 0.750013 -1.966645 0.572101 3.939347 -0.289338 4.204124 1.319955 -0.345773 1.564676 -6.875896 2.674287 -2.165874 1.800370 -1.485919 -3.795470 -3.544396 0.690696 -0.883024 10.933144 -6.384141 3.527362 3.182162 -0.548955 -2.313348 1.381267 -2.387304 1.899337 -1.761330 -4.257017 3.552732 1.579589 -1.075308 -1.323286 -6.134270 6.344434 0.235850 0.149750 -2.862335 -5.552145 3.248379 -0.639698
*dt_kpop_lyrics_53 -0.045911 1.302301 -3.428280 4.297488 -0.869642 3.128300 -6.220212 -3.328533 -1.708703 -1.766197 -2.925671 -1.909566 0.641131 -2.497128 3.545720 -3.502278 -2.018481 -0.013359 -1.982050 -1.375600 -0.956798 -1.836709 -0.469420 -0.316426 0.194702 2.917972 1.016619 3.549164 3.798922 1.659462 1.572929 -4.964298 -2.592838 -0.015027 2.861916 -1.129784 2.753060 2.939370 -0.711423 4.263354 3.182317 2.871313 3.035905 -0.470613 -2.145558 1.221889 7.997919 -3.434910 1.184747 2.428288 -3.796523 3.179016 -2.579619 -4.319562 0.839369 5.855518 -3.643528 -2.413553 1.145302 0.375535 2.600936 2.166829 -3.392917 0.529969 1.832749 4.923159 4.382382 2.844070 1.361035 -6.192974 -0.875101 0.071654 -5.733883 1.611290 -4.259750 -1.871905 -2.986879 -0.782655 2.082571 3.483947 -2.451464 -5.863259 -0.804549 0.316049 -2.704401 -2.724597 1.371941 -2.071019 -3.602591 -4.650662 1.722946 1.030638 -1.492922 -8.879713 0.747810 -1.312687 -1.429852 -3.219730 2.079646 0.256845 7.054015 -2.644370 -1.345891 2.234332 0.445046 3.481127 -3.061014 2.097246 -1.308098 0.636155 0.541050 2.462719 4.685835 2.589774 4.904614 2.892549 2.176378 3.159282 -0.955900 -4.035217 1.761129 -1.939175 -3.734516 1.195681 -2.232388 0.919222 0.404619 4.580144 -2.984225 5.352815 -1.876196 3.250388 6.602714 2.980700 3.389344 -4.980989 -0.054080 -1.170139 4.462512 0.696527 -2.259500 4.634023 -0.378670 2.921264 1.961993 0.985838 1.405489 -5.397845 3.378787 -2.216069
*dt_kpop_lyrics_54 1.297149 1.418029 3.258334 4.321294 6.406923 4.749292 -3.986040 2.910692 5.347053 1.287550 -7.089111 -6.144954 0.064699 -6.886949 5.052492 5.458158 1.663990 0.874168 -0.960648 -0.474160 2.886327 -2.812407 0.955928 -0.890718 -2.561347 6.202403 1.004068 -0.454790 -7.220637 -2.215854 0.449204 -7.539215 0.946292 -6.493846 4.510699 -3.446596 -1.725189 -2.006190 -2.560989 5.061268 -2.910260 2.584236 -3.959693 10.692074 -2.404404 -2.795074 3.442100 -5.582534 -1.419143 6.768652 -3.210444 -2.083744 0.394971 1.995232 -0.523033 7.545786 0.302612 6.873899 6.079702 1.289700 4.646392 -2.634577 -8.413038 9.134062 1.091822 0.956122 2.939306 1.443501 -3.018579 1.653734 -3.214703 -6.255655 -7.598362 2.669594 -3.120685 5.725388 4.829024 -4.614727 4.676113 1.435835 -2.842010 -7.359354 -0.412881 1.180676 -3.853302 -6.333723 -4.484469 1.169117 -7.036963 5.948887 2.150644 0.507486 0.479011 -5.678530 -1.446905 -1.758737 -0.068058 -7.367233 5.631692 -8.764362 1.079964 -5.892669 1.546730 0.038400 3.547146 -4.160170 0.087462 3.943241 0.525457 2.139607 -0.382877 -0.930686 1.921676 2.550728 6.404828 4.370897 1.519727 7.929156 -1.344636 -4.360813 -6.007784 3.104441 -5.286599 2.404452 4.132425 1.146903 -2.633305 4.670179 -10.652380 -2.174398 5.183353 0.254354 8.268772 -0.242748 3.993113 0.392430 4.346626 3.902301 -0.699338 -2.590849 4.826359 0.877271 -3.151843 8.143950 -3.161804 -4.420862 9.571577 -9.136715 3.914765 -5.496574
*dt_kpop_lyrics_55 -10.459445 -3.852951 -3.595993 -0.319973 2.270253 3.314750 -2.041832 -1.996191 3.458019 -1.058089 -2.024276 -5.586284 -2.431434 0.883295 3.376790 -2.935705 1.015763 9.125125 -4.849236 -0.538335 1.625639 -9.269057 3.664150 0.245428 -1.386080 -6.218788 1.749003 2.885149 -1.170374 -2.653754 -8.559094 -3.642609 0.352938 -7.917034 4.345797 -3.172907 1.351534 -1.758450 1.056634 -3.418680 -3.535771 5.459617 1.115162 9.754972 -0.440041 -0.472954 4.633765 2.484131 0.819123 6.335384 -6.159010 -1.226846 0.753801 -4.608245 -0.407996 11.149232 -1.368212 4.398296 5.315850 0.274954 1.644872 0.094848 -7.545550 5.371795 -2.247008 -0.784284 -1.514831 -3.130768 -6.036126 1.126797 -1.974999 -0.067491 -6.940698 1.393469 -3.135663 0.677595 3.756258 -3.235481 -0.121778 5.344230 -5.470154 -5.820252 1.914992 4.224188 -3.181344 -9.496124 4.814427 1.700282 -2.972897 0.116115 2.661405 -4.036046 -0.795096 -8.069577 -5.535522 -4.760208 0.470104 -2.633418 2.240673 -5.139180 3.482945 -1.650382 1.375859 -1.101378 3.070910 -1.928156 -4.658473 -2.193625 4.889730 -0.127538 -4.241041 -0.840420 2.360051 -4.242669 0.002883 1.520686 0.811088 -0.261099 -2.147992 -8.881406 6.824420 -3.256415 -6.225502 1.367624 -8.509057 -0.606404 -3.179317 1.490148 -7.099936 -1.804223 3.236591 2.621411 1.736480 -2.464017 0.342435 -0.383119 0.888685 -1.135592 1.296854 5.122676 4.807193 -0.148880 -0.776443 2.889472 1.659901 4.784459 3.305774 -2.611849 7.267977 0.002943
*dt_kpop_lyrics_56 -3.246493 3.613663 -1.134670 -1.916999 0.705189 7.715919 -2.481932 2.019481 -1.358475 1.452183 -4.707440 -0.801720 2.282903 -2.646745 2.543697 -5.475593 -2.370197 7.927495 -4.399941 -0.452507 -0.682725 1.745834 -0.986009 -0.798717 0.312928 -1.060262 0.905484 3.531253 -4.742281 0.881852 2.078313 -0.134015 -1.440892 -0.567743 3.402225 -5.459421 3.834390 -2.536438 -2.207797 5.207239 -7.905766 1.507985 0.527455 6.046749 -2.578297 -0.708702 3.098972 -0.398881 -5.872718 2.305905 -1.122575 -4.009774 3.291194 -4.710366 3.084827 4.062469 -6.581291 1.501993 5.868873 1.236183 -0.403161 1.685640 -4.383486 1.525961 -0.244417 -0.023874 1.333065 0.071927 -2.195330 -3.168650 1.048656 4.084908 -4.332458 -3.031196 -4.924315 2.419644 -1.580832 -2.993651 -0.682143 3.370294 -7.534554 -5.583691 5.510208 1.464192 -0.606838 -5.754382 -1.084006 2.766124 -11.349380 -2.151349 4.805759 -5.732684 -6.437255 -10.551309 0.749763 -3.049001 -3.303023 3.524165 3.718380 0.029938 -2.057762 -4.285013 -3.060219 1.566004 -0.992905 -1.404603 -1.854645 -1.592988 -3.878756 -1.520107 -1.394854 0.864704 -0.745417 -1.371527 1.186223 1.197990 -4.370360 3.708504 -1.876740 -4.890680 -0.001080 -4.373840 -8.619975 -3.505618 -2.060558 3.288749 -3.197688 2.086905 -6.016955 -0.482701 -1.232518 4.501346 1.868489 2.908640 1.338373 2.779405 -2.463505 -4.990111 -2.867351 0.610316 -3.689002 3.809188 -4.960790 3.406848 1.501148 4.713526 2.219857 -5.088776 6.457482 -4.525395
*dt_kpop_lyrics_57 -0.039582 0.827517 -0.983667 2.472825 -7.063585 4.382957 -2.417757 -5.902865 5.274509 -3.337965 -1.980481 -3.878627 -0.649790 0.667289 3.927265 1.895662 1.872647 4.285112 -3.129542 -5.324394 4.886423 0.379740 0.873578 -5.755685 -3.565656 5.681079 -0.763400 -2.111956 -1.892362 -0.830426 -0.284601 1.265869 -3.407822 3.304802 6.236352 -5.978714 2.904125 -0.491564 -0.411647 1.114303 -1.909180 0.373401 -3.323613 9.763305 3.449652 -8.284627 0.932954 -5.081293 -3.423403 0.608267 -4.229263 1.609363 -2.210523 -3.228823 4.314146 5.342788 1.941403 1.723755 -1.193512 -0.700551 3.709683 6.160899 -6.750167 3.627079 3.755321 5.263586 7.345505 -0.253760 -0.185370 -0.626842 -0.424775 -0.528406 -2.236284 2.587528 0.066661 -3.156287 2.094577 -8.123391 -1.674438 1.388757 -2.985424 -4.356386 2.811079 -0.158245 0.089061 -5.080474 -2.298395 -1.775102 -4.494760 -0.152651 -0.609925 0.263066 -1.793577 -6.190621 -4.010714 -3.137542 -3.645964 -2.422964 -1.965195 -4.247778 1.828465 0.111648 -1.909641 -1.752394 -1.144829 -1.300813 -7.010043 1.396176 5.320364 0.428711 -7.424798 0.584017 3.233199 -1.558307 4.280597 0.254220 2.280751 2.530891 -2.582951 -0.615676 -1.601881 -2.336631 -2.148601 -7.364111 0.037688 -3.511470 2.840021 3.063408 -9.645332 2.413388 1.945805 0.363125 3.547477 1.700731 3.108730 -0.996602 -0.964499 -1.436245 2.744115 -3.088169 -0.163884 4.736897 -5.129305 3.470492 1.037510 1.295616 -3.644228 -3.341510 1.805857 -1.757520
*dt_kpop_lyrics_58 -2.680840 -2.308595 -1.399089 -0.989888 -2.633338 7.946719 -3.459249 2.001920 -1.790468 4.757707 -2.669191 4.074467 -0.557489 -2.356785 0.894856 -6.322316 -2.877221 1.612150 -5.473233 4.276772 -5.959258 -2.007000 -0.303462 -0.969313 -2.420189 -0.096563 0.242298 -1.908104 1.638182 0.821317 -3.833605 1.548468 -1.263378 -3.921052 4.552804 -1.102139 5.395477 -3.072988 -0.820969 3.403903 -2.239242 2.677577 -2.817255 3.202600 0.180333 -2.978969 -1.080227 0.210873 -0.918910 4.349382 -5.709373 -0.761612 0.265363 1.189891 2.234340 4.958701 -8.409660 5.042593 2.801281 0.859995 5.040338 -2.060997 0.010246 4.794580 0.844789 -0.379948 0.459043 0.019371 -7.881452 -5.661881 1.669845 -1.372702 -8.027115 -3.358572 -0.190088 4.436605 3.704804 -0.366407 -3.794335 1.618451 -4.467009 -5.015031 -2.285324 -3.303738 -2.513132 -4.603811 -0.133618 0.828334 0.829060 -3.815714 1.807878 -2.870534 -3.152317 -4.688515 -0.897837 -3.035337 2.515118 -4.517830 4.630912 -2.806078 -0.724831 -2.107713 -1.372038 -1.774543 -0.148051 2.788617 -0.655337 3.519753 1.102757 -0.712328 0.264330 -0.070378 1.314201 -1.573967 -2.993444 -0.233984 -1.015478 -3.025681 -2.092793 -1.140519 -1.672443 -2.260354 -0.468713 -3.454521 -8.398880 -3.659468 2.804488 7.936261 -3.941632 -0.561291 3.063487 4.543797 -0.208122 3.031051 1.366960 -1.268475 0.866475 -0.742872 2.784698 -5.341593 -2.684571 -0.499672 -5.463793 3.835709 0.618967 1.136640 -0.073179 -6.995358 -2.314177 3.304099
*dt_kpop_lyrics_59 -3.025066 1.070711 -2.748371 -0.727575 -5.621163 2.825253 -0.226157 2.220119 0.751745 -3.182582 -3.603415 -2.850413 2.243254 -3.417602 0.411471 -0.760036 0.559022 -0.719418 -3.409392 -5.963774 -0.566546 -1.729466 -4.046965 3.019326 -4.873074 2.093495 -0.682840 3.749111 -0.365573 -2.243634 -3.439251 -4.233655 1.132853 -7.113925 3.626043 -4.128814 5.275812 -0.479715 -0.475838 2.724962 5.828376 5.521995 2.065429 4.891300 -4.231616 -2.611664 4.482491 2.275455 0.496752 0.280861 -2.543148 3.824305 2.108072 -2.918683 1.452240 6.817563 -1.660143 4.463130 0.712267 -0.701396 -1.020924 3.492829 -0.864049 2.849072 3.160001 -2.691138 2.831414 0.278702 -4.834313 -5.893058 -3.511081 3.596857 -5.495943 5.805201 -3.644715 -0.523512 0.534514 -2.869865 0.548574 7.333580 -8.706159 -5.733574 -1.822995 -0.570007 0.239215 -1.952743 -2.509187 -1.572641 -2.914009 -1.191995 0.051625 -2.801956 0.856015 -3.312134 -4.433240 -4.522214 -1.715044 -3.907260 4.936845 -3.236308 1.000141 -1.150488 -0.680256 3.449820 -2.793729 -4.094999 -3.653071 2.748145 1.142539 -2.571493 -0.351459 0.024177 7.325650 -1.611138 6.332916 0.096030 -3.644578 -0.636358 -1.894799 0.171357 0.554199 -1.579939 -0.040994 -5.006740 0.623735 1.836828 -0.681730 -3.732752 -2.257816 0.555448 2.897153 2.484728 2.714041 0.452332 0.931301 2.628462 -3.501499 1.033990 3.575438 1.845567 -2.639131 -0.472138 -5.447520 5.039176 -0.529365 1.915557 2.880106 -1.677155 5.110823 2.701850
*dt_kpop_lyrics_60 -7.394776 -1.488463 -0.457129 -1.508964 -4.128471 4.586202 -7.880872 -1.584728 0.185470 -6.873014 0.823791 -1.442352 -5.734222 0.610723 -0.123343 -5.278663 -3.045486 1.995736 -0.923526 1.315169 -0.521438 0.648483 2.312402 1.075599 0.997052 3.025424 -2.113872 7.671515 -1.730229 2.557640 0.685503 -4.326146 -0.644308 -4.206947 0.121738 -5.433013 6.287255 -1.363012 -0.467290 3.391733 2.271635 6.434588 3.443197 3.380077 -2.676298 1.677976 5.250240 -4.726709 -6.946724 -2.047653 -4.503588 1.193684 2.753881 -1.610227 0.018021 4.955278 -7.777184 -0.781894 -0.843719 -0.807311 3.494292 0.573267 -5.094088 -0.436003 5.758055 1.839397 -4.409296 0.682965 -5.119025 -5.865185 -1.655574 2.990158 -8.223248 3.819650 -5.502224 -2.321443 4.926904 3.481174 0.792931 6.529181 -7.677839 -5.173067 -1.377307 -0.371993 1.899796 2.412340 -6.636085 -3.511034 -3.758665 -2.060374 -2.606706 1.247901 0.064166 -3.525335 -4.481118 -2.487124 0.543030 -3.626605 2.559174 -1.849928 1.864964 0.245934 -2.235601 4.988276 0.098719 3.017050 -5.688424 1.241423 3.099516 -1.632222 -0.117698 2.770421 4.338042 4.279225 3.468611 -2.594276 -0.192388 3.440288 -5.398858 -4.505411 -1.491844 1.530288 -7.493553 0.281449 1.601569 -0.542870 0.704785 3.225290 -5.126548 2.674330 1.449741 -1.367629 0.078104 2.804981 -0.245435 -1.000758 0.058193 -5.122616 4.863624 -1.864602 -2.040809 1.525311 -9.650279 5.984782 0.376790 0.915823 2.359709 -2.335026 4.932602 -0.502951
*dt_kpop_lyrics_61 -4.212782 -4.054164 -2.274724 -1.538142 0.909427 0.410230 -3.401451 2.431781 4.809960 4.731642 -3.495061 3.203167 -0.190338 3.620196 -0.506762 -6.177507 -1.658650 1.942235 -3.505338 1.047566 0.382339 -3.042828 -2.574398 -1.073008 -3.156429 -0.166290 -2.449210 5.859354 -2.673988 -2.413392 0.497652 0.461388 1.641923 -0.464229 5.380995 -4.822184 4.039499 -1.023076 5.305823 2.947428 2.455737 2.693006 -1.215797 5.444413 -3.014737 -0.854405 6.032681 2.104585 -0.723070 5.197937 -3.907884 1.055798 1.259249 -3.126652 4.277617 1.536916 -1.108058 5.808005 0.039202 -2.570279 1.314011 1.190276 -1.611722 5.467257 9.068813 2.608226 6.991508 3.885777 -1.139114 -1.596623 -1.104540 6.022985 -4.873760 6.710032 -0.730812 -3.638951 2.870836 -0.267255 -6.436383 2.339021 0.148985 -4.595204 0.415125 3.111530 -4.265200 -3.794124 -3.849613 2.205916 -4.202094 -3.233641 1.263431 0.443632 0.411250 -2.069056 -3.020625 -2.820539 5.750808 -3.393764 -1.514797 -3.119057 1.118299 -4.610309 -0.778452 -3.912636 -1.623789 1.013226 -0.817386 -3.013756 1.086140 -2.933125 -1.888232 3.518077 2.762938 3.423410 3.614811 -2.023077 -3.067849 -0.112258 -3.449558 -3.688659 -2.099998 -1.182819 -2.181523 -2.001487 -1.366830 -4.998933 0.307438 4.613208 -4.745228 2.967276 2.369055 0.766731 -1.415519 1.414373 -0.883569 3.466896 3.399050 -0.499455 0.144399 2.546549 -1.357720 2.551608 -6.024698 -3.186560 -3.809587 0.969624 0.194860 -11.057232 2.317639 4.898145
*dt_kpop_lyrics_62 -5.952801 1.713561 2.817802 -2.760646 0.465818 2.687719 -7.611716 6.043625 5.251090 -1.463460 -9.186325 -3.473800 -1.685410 -3.509984 3.504044 3.741960 -2.734282 6.633719 -4.493085 -1.678380 -0.838703 -0.460837 1.456239 4.969151 -4.441298 2.795974 -2.349633 2.932596 -3.225182 -1.668090 1.687753 -4.382422 6.257030 -0.266304 3.459452 -5.061580 4.187614 1.962496 -1.520938 4.367249 0.735354 -0.037589 0.552670 3.321434 0.014382 -5.690602 7.131210 0.288548 -8.464432 4.590561 -10.744074 -3.256270 0.751619 2.101403 4.813199 2.881187 -5.673024 9.300982 -3.173472 -7.856452 0.216307 -0.226457 -3.134137 2.280369 -3.540826 2.216035 2.588923 -2.172098 -6.617604 -5.387032 0.755953 -1.895351 -2.705391 -3.833939 0.659262 5.177247 4.048410 0.735383 -7.827324 2.110364 -5.754545 -5.369541 0.952976 3.908109 -5.894945 -5.655218 -7.699656 -0.130106 -6.884153 3.270792 0.787414 -2.985248 -1.285073 -9.573154 -1.418448 -0.174323 -1.696703 -5.774125 6.792173 1.285883 4.271088 -1.372973 -3.078876 -4.264647 2.228312 1.244826 -0.962707 5.927840 -1.030347 0.589504 5.577115 -3.926612 8.046085 -0.071490 3.377960 5.939733 2.692633 0.565649 -0.223169 -3.405614 0.204067 -1.700020 2.194418 -6.825428 -5.925865 1.137361 4.337571 3.796460 -3.524505 -2.618285 4.539387 6.259496 2.928807 2.900946 -1.018828 7.114711 -0.740478 -1.093354 -3.830322 -0.024297 -2.035795 2.426767 -6.922936 6.551605 3.395718 -4.921620 0.260356 -1.655247 2.716689 -0.752315
*dt_kpop_lyrics_63 -7.667109 0.229675 -0.028793 3.646763 -3.177653 8.409263 -3.420526 3.627786 -0.196875 2.011360 -1.979950 -3.549253 -2.275878 -3.092516 1.313480 -2.409130 -1.257203 6.413741 -4.197059 -1.990039 0.405288 1.038360 0.979571 -1.438989 -5.642917 2.754562 -1.383855 4.986329 0.686633 2.110633 -2.365557 -7.130653 -1.424996 -1.772561 2.558859 -2.390494 4.271411 -1.215231 -0.806122 -1.710610 -2.531127 0.701317 2.520220 9.327086 -0.089972 -4.101008 5.334363 -4.890881 -0.349682 6.537261 -1.013209 0.009723 0.683623 -0.471571 6.186964 3.805241 -4.488602 1.003033 2.768462 0.339495 -1.713376 1.224440 -2.881702 1.101571 1.802876 -0.170314 -0.550111 -1.351100 -3.904487 -5.531886 -2.391021 3.610058 -7.116481 1.888991 -1.819187 -1.543755 3.209255 -7.459572 1.348199 0.021448 -6.861355 -2.158753 1.774721 -0.174587 -6.983991 -3.744335 5.088424 1.189092 -5.800853 2.217834 2.871970 -3.963894 3.586839 -10.018779 -0.651384 0.580963 0.670132 -2.428362 7.157906 -0.522662 -0.142028 -4.280505 0.960509 0.474704 0.583061 -2.147792 0.219278 2.743901 1.982654 -0.808340 -0.604003 0.404334 3.214145 1.380651 3.599703 1.006741 1.723164 3.343492 2.446573 -6.876118 0.921702 -5.177764 -5.051493 -5.306175 -6.042680 1.163791 1.978112 4.635394 -7.936873 -0.095464 4.148126 4.450545 1.429525 -7.249922 5.420668 -2.530975 0.676167 -0.741263 1.553165 -2.726863 -3.909131 -1.651773 -9.213921 5.253783 2.489166 5.320907 1.735059 -2.515474 -0.891614 1.142262
*dt_kpop_lyrics_64 -0.782403 -0.594158 0.048282 -0.115232 -3.939859 1.179545 -5.910368 0.055184 0.214292 -8.607567 -5.753693 0.430512 -4.295840 2.311491 -0.104594 -4.294939 -2.319427 -0.811097 -4.821941 0.468585 1.355793 -1.457311 -3.188857 -0.841893 -0.452210 0.572230 1.503015 2.287474 0.735094 2.085427 -0.408592 2.335747 -0.873844 -2.317837 -0.850515 -3.655936 2.572778 5.355039 -1.737778 -1.441958 -0.237664 10.944706 -3.194157 7.662442 6.743654 -3.109103 6.294472 -4.118452 -1.470392 6.113832 -5.393853 4.379535 2.654333 -2.669101 -4.111367 -0.871432 -1.669556 5.802845 4.264093 -0.646948 3.376834 -0.127044 -4.938941 7.937602 6.124261 4.278366 6.241912 -1.799386 -2.538585 -3.293642 0.246847 0.850862 -1.798927 -1.229140 -8.921782 -0.203861 0.374712 -4.365395 -1.563782 0.956975 -1.251196 0.892814 -0.242523 1.221960 -0.174967 -2.189302 -6.432759 -1.842070 -3.726079 -2.997316 2.460825 -5.642410 3.091951 -5.980273 -2.739298 -2.885339 -1.706735 -4.900918 -1.098607 -5.595424 1.912190 -6.303862 -2.351792 -1.167995 -1.014694 -1.279100 -3.583212 -0.835820 -0.040921 -5.225096 -2.936140 3.341244 6.631867 -7.056829 4.672219 3.716879 -3.444968 3.662124 -3.369302 -3.081376 -0.315930 -7.376898 -4.040645 -0.246001 0.987309 -0.217679 -2.415772 -0.637721 -8.925375 -1.067522 0.097598 -0.645736 -1.528862 -3.445980 2.740674 -0.739712 0.525501 -6.033013 3.827226 2.030016 2.991226 3.684182 -3.926274 0.699990 0.711110 -1.380533 -0.089973 -3.085907 2.429932 -0.505457
*dt_kpop_lyrics_65 2.547363 -0.836308 -0.309865 -11.493651 -4.962979 2.193520 -5.466703 1.998886 0.577902 -0.198137 -6.651957 -2.888730 2.452941 -2.532736 -0.706672 -2.049603 -4.030819 8.781854 -8.068792 0.300665 -1.727260 -0.494733 -1.028507 -3.265435 0.216999 0.180669 4.171227 -0.119960 1.336058 2.051505 -1.748589 -0.050172 2.381897 -4.869340 0.948546 -1.285532 1.216100 -1.082386 3.048755 4.004463 -3.431665 7.704807 -5.232519 10.345304 -3.167692 -1.987054 2.937624 2.282175 -2.522946 5.305552 -7.438940 -1.555066 -1.707193 -1.780941 4.097466 8.351609 -5.756397 7.259656 2.122678 -0.174525 6.879659 -5.634203 -5.452044 -0.202960 -0.322859 1.703536 -1.579675 1.583893 -4.241817 -8.945606 -1.634002 4.027122 -4.049276 -2.953053 2.142657 -1.185776 2.226145 -2.113305 -3.182055 3.298829 -7.367168 -4.993530 0.478950 7.290040 -8.207897 -5.766923 -8.004167 -3.008138 -0.405834 -4.437455 3.108011 -0.372364 -2.818247 -9.899304 3.503813 -5.246518 -1.009228 -2.095294 6.146928 -0.332211 3.215603 -1.829631 -2.760182 1.084607 0.552248 -1.337972 -9.960675 -2.720322 -1.028589 -1.616270 -0.621387 -1.826806 1.485370 3.705091 8.165128 -1.728200 1.618623 4.468232 3.371879 -2.535826 -1.994590 -3.970116 -6.272087 -6.988470 -6.326878 -7.753927 -6.023632 12.774085 -1.932507 -0.808407 2.153060 -1.347025 4.519053 8.452598 -0.117402 -0.431644 -2.101131 -1.638456 0.389850 -6.677970 -2.705727 4.598830 -3.685601 -1.699577 -1.693311 3.576743 1.143404 -7.751844 9.640001 2.419403
*dt_kpop_lyrics_66 -2.613645 2.873699 -1.775654 -0.408228 -4.758152 5.101489 -1.110669 -1.396622 6.778398 -2.874290 -5.220832 -2.536783 0.082967 3.636830 2.961218 1.535427 1.629176 5.241459 -4.231790 -1.421621 1.717065 -2.273834 -8.236456 6.390835 -8.891655 -1.712886 -0.290121 2.501311 1.734939 -1.731349 4.062645 -1.430294 -0.174396 -3.522245 2.473264 -5.053158 3.522199 0.665973 -3.089688 3.155755 -0.445652 5.514849 1.317518 8.629164 -0.004115 -4.597855 3.697906 1.170233 -0.227888 3.482649 -2.009895 2.048473 -0.236478 -2.124885 -0.428793 4.103993 -6.809800 -3.075279 3.977082 -3.271069 3.566042 -1.739164 -1.624591 2.513904 3.752971 -0.073471 2.781416 0.554705 -3.579663 2.055547 -2.272866 -0.422084 -5.654202 -3.257030 0.061905 -1.672891 0.517275 0.996263 3.728004 0.935272 -2.473184 -5.166709 6.086361 1.154334 -5.406489 -7.492813 -4.156441 0.488945 -1.224761 -6.650522 3.428822 -1.587619 0.449198 -5.653380 -0.677810 3.112615 -0.531138 -4.134806 2.126904 -6.578697 2.060940 -2.179357 -5.040640 5.039197 -1.594384 -5.324496 -4.604856 -0.795579 -6.806796 2.288750 0.050588 -2.078549 1.757916 4.574749 5.700272 1.293249 1.314478 4.089444 -2.155759 -6.330869 0.468866 -2.012873 -2.465849 1.073194 -0.317102 0.474076 2.191118 10.056338 -8.497185 -1.659702 -3.118928 1.685193 3.852352 -0.869653 1.036087 2.942239 0.261484 1.378715 1.353783 0.090612 0.211237 0.405831 -1.306608 3.936222 -2.761523 4.911024 -3.144271 -4.496810 1.218790 0.646705
*dt_kpop_lyrics_67 -2.172216 -0.530569 -2.990839 2.768256 -4.709221 6.223763 -5.141110 1.714773 0.593644 1.876531 -2.411873 -0.465764 -3.703363 -0.757884 10.340101 -2.962679 -2.465023 1.303259 -1.951019 0.252152 3.216606 -0.744205 3.303627 -1.651265 2.089596 6.328392 1.312795 0.212796 -1.864473 -3.087174 0.247394 -2.557626 -1.326840 -4.052708 2.896970 -1.515572 1.476087 3.191641 2.379878 4.840804 2.316637 1.452655 2.440271 1.796152 1.602784 -5.139798 4.044120 -3.147342 0.214241 2.938585 -1.008959 -2.946669 0.764377 -1.450603 2.194334 0.254212 -4.835519 0.950314 2.785675 -6.977173 1.904075 2.774438 -1.921268 7.231431 0.588383 -0.493079 1.571487 -1.841192 3.405381 -1.444126 -0.909366 2.461639 -8.950534 -1.862816 -0.740521 5.119601 1.331826 -1.108167 1.978196 6.966941 -7.231679 -4.489365 1.550307 0.109298 -1.612497 -4.630836 -2.640086 0.470145 -6.745293 -1.780048 3.761421 -6.472685 1.732721 -8.167341 -0.554368 0.508666 -6.652639 2.579891 2.346303 2.371743 5.356032 2.423826 2.403394 3.307801 -1.601041 3.158986 2.488074 1.282402 -2.133898 8.429509 2.153714 2.799022 4.416612 3.206429 1.606300 2.230403 -4.804440 3.641740 -6.017408 -10.693356 -1.349059 -1.341528 -2.688828 -0.096904 1.464868 -1.222865 0.280480 3.129966 -4.757243 2.852498 4.286805 5.177897 4.684456 1.904433 0.857267 0.754319 3.137996 -0.780489 2.490470 -0.367206 3.008235 2.380178 -4.083165 2.888767 1.857744 3.636956 -3.111735 -7.097055 7.987753 -2.516403
*dt_kpop_lyrics_68 -9.130258 -1.726183 -4.357837 -0.949149 1.431717 2.256578 1.850984 -1.232178 2.702868 -2.387368 -1.728256 4.254035 -6.220812 0.264335 -0.293792 0.364688 -1.977710 -1.717355 -0.549485 -2.125185 -3.256440 -4.260809 -1.355153 -3.316491 1.010485 2.141623 5.705953 1.449999 -0.679931 -0.710055 -0.260796 1.853955 0.024333 -0.494637 6.214504 -3.646004 1.562497 3.123570 -2.022387 -1.827995 -5.951888 5.521591 4.454118 8.491281 -0.074501 -7.765142 1.785156 0.426134 -3.302429 3.092243 -1.558596 -0.993749 -2.882567 0.239040 8.832767 1.447065 -0.983193 -2.813597 -0.982867 0.545218 0.940035 3.751570 -5.899217 1.571047 4.263373 0.609807 7.924161 -2.832184 -0.787322 0.045258 3.166670 1.683540 -1.213078 -0.815405 -3.654841 -3.536119 2.595076 -0.903948 -0.852584 2.194976 -1.232314 -2.700194 -0.390094 3.336939 -4.843078 -0.263513 -5.439653 -3.373479 -0.887197 1.493986 -1.306110 2.886058 -4.920051 -5.882753 -0.572743 -4.035254 -1.935071 -3.842577 2.540154 -1.751260 3.451425 0.325065 -1.631639 -0.695814 1.429264 0.379033 -1.532094 -0.596209 1.360163 2.100317 2.376276 -0.868362 2.998836 -3.848470 3.614635 -2.551616 0.765046 -2.233562 -0.498139 -5.723847 3.326901 -0.155369 -5.599844 -0.628053 0.300424 -2.535335 -3.109248 5.574840 -4.718238 2.671150 1.026005 0.973555 7.401987 -2.968849 -2.885714 -4.301759 -3.211181 1.976667 3.170834 -3.937533 -1.079307 0.856420 -3.487665 5.411663 7.079660 1.070906 3.112468 -2.871076 4.193716 0.330212
